flow 1.167973 0.644607 -1.426199 -1.164737 -0.210241 0.181492 -1.149285 0.020976 -0.984340 -0.842274 -1.615444 -0.891635 0.913097 0.698007 -2.866631 -1.179498 -0.808656 0.447970 0.548174 1.785829 0.232808 -0.464170 -0.936894 -0.262103 0.591153 1.496395 0.996450 1.259891 -0.804862 -0.044262 -1.460124
boundary 0.884958 1.494259 -1.883786 -1.022262 -0.963695 -0.319845 -0.789639 -0.460708 -0.783493 0.315366 -0.745807 -0.450303 1.492428 0.282897 -1.479717 -1.539003 0.013267 -0.611883 1.819775 0.278040 1.288087 -0.132044 -2.166549 -0.005093 -0.691263 2.058691 0.537780 -0.019935 0.687328 -0.357588 0.700124
pressure 1.721030 1.939685 -1.706856 0.040718 0.741729 1.323343 0.139027 -0.894670 -1.324222 0.686179 -1.054603 -0.506788 -1.265946 1.009315 -0.585484 -1.249972 0.913204 0.178422 0.534066 1.790198 -0.155872 -0.497247 -1.205690 0.568981 0.754251 1.050022 1.342934 -0.037131 0.833423 -0.494142 -0.478911
layer 0.973707 1.102854 -1.710462 -0.814428 -0.899207 -0.220901 -0.781053 -0.218501 -0.913906 0.306228 -0.277580 -0.758513 1.495223 0.299351 -1.511698 -1.641760 0.229941 -0.821674 1.696639 0.303027 0.995979 -0.205592 -2.280065 -0.105146 -0.549860 1.468758 0.680141 0.235662 0.934790 -0.162706 0.467006
number 0.912588 0.758098 -1.901005 0.684174 -1.394010 0.579125 -0.396264 0.656076 0.321118 -0.623666 -1.480173 -0.070336 0.620078 0.562989 -1.428665 -0.903125 1.485170 -0.199641 0.986228 1.348615 -0.527582 -0.664721 -0.362445 -0.148425 0.756750 0.672292 0.590778 -1.030445 -0.503595 -1.234635 -0.828207
mach 0.713035 0.482056 -2.456105 0.102174 -0.989030 0.222002 0.129842 0.594011 0.240993 -0.639420 -1.033923 -0.316000 0.567345 0.113983 -1.361339 -0.018513 1.298528 0.412144 0.830147 1.703271 -1.087809 -1.203176 -0.644141 0.248955 0.888376 0.782834 1.723059 -1.194017 -0.918263 -1.050805 -0.754365
results 1.717508 0.920020 -0.286903 0.011593 -0.164739 -0.249573 0.653938 0.490446 -0.906162 0.017121 -1.314112 -0.547223 0.963712 0.158673 -0.886183 -0.485216 1.176542 0.151198 -0.082560 2.031404 -0.554684 -0.572845 0.520706 0.190486 -1.067427 2.385905 -0.004124 -0.606563 0.448286 0.264827 -1.206228
theory 1.338431 -0.005341 -0.106297 0.055836 0.138296 -0.342172 -0.034379 0.139952 0.090891 0.551006 -1.682061 0.284933 1.309888 -0.258452 -1.884458 -1.792718 -0.550362 -0.045119 -0.432919 1.242869 -0.289039 -0.844730 0.346671 1.742128 -0.460136 1.245682 1.243707 1.167557 1.637050 -0.480756 -0.714492
shock 2.112857 0.085378 -1.662032 -1.183622 0.899974 -1.036687 0.042939 -0.324266 -0.087806 -0.187598 0.214589 0.386783 1.299346 -0.283512 -1.126083 -0.442929 0.300297 1.662352 0.135009 0.878036 1.498033 0.806668 -1.208398 -0.096910 -0.223151 0.705730 2.667554 -0.640093 -0.066531 -0.518992 -0.962348
heat 0.199539 -0.253079 -0.378319 -0.193959 0.014068 -0.046203 -0.525693 0.409216 -0.853770 0.937283 -2.369045 -0.460582 -0.266146 -0.086556 -1.587445 -1.326943 0.856794 0.643220 1.358369 0.739999 0.062129 -0.483030 -1.297566 -0.828787 1.386248 0.881325 -0.248314 0.019299 0.634790 0.741858 0.739479
method -0.025822 0.581924 0.365270 -0.631757 -0.301160 0.436123 -0.080501 -0.761419 -0.673744 0.671363 -1.836695 -0.180208 1.129316 -0.152764 -0.380779 -1.610883 -0.526648 0.582306 -0.283572 0.905163 -0.241967 -0.132799 -1.152825 1.798095 -0.458923 2.345784 0.266244 -0.079818 -0.332354 -0.370631 -0.928417
two 0.184477 1.430266 -0.923988 -0.775415 -0.077574 0.690189 -0.838094 0.968370 -0.384860 -0.819178 -0.838929 -0.149217 0.697887 0.317773 -1.092076 -1.174067 -0.173495 -0.052851 0.244831 2.020729 0.021737 -0.997876 0.438451 0.189718 -0.269416 1.446191 0.554725 -0.114962 -0.843279 -0.132415 1.328143
wing -0.034930 0.084610 -1.245226 -0.051399 0.536053 0.944703 1.131178 -0.115837 0.551202 0.644709 0.421732 -0.060748 0.070768 0.256627 -0.956408 0.348568 0.306134 1.263194 -0.540670 1.946124 -0.049008 -2.163016 -0.007412 -0.062963 0.281154 1.798377 0.816898 1.323660 -0.342507 -0.760072 -0.066021
supersonic -0.374115 1.131680 -0.547221 -1.601923 -0.014410 0.106316 0.108152 0.322252 -0.267023 0.505971 0.134378 -0.751627 0.471040 0.827029 -1.776543 -0.454524 -0.527342 -0.005996 -0.567666 1.425625 -0.497403 -2.080048 -1.200786 0.494156 0.722818 0.764115 1.903884 0.429684 -0.200112 -0.151737 -0.613363
surface 0.868869 0.105118 -2.132387 -0.832587 0.134112 0.123432 0.829398 -0.539948 -1.558977 0.028408 -0.775251 -0.033908 0.384776 -0.149269 -0.850811 -0.998900 0.705348 0.821064 1.365591 0.866424 0.195970 -1.241027 -1.495906 0.758104 0.265374 -0.023158 -0.208444 0.333681 -0.053225 -0.036827 0.598688
body 1.194477 0.270900 -0.546582 -0.817492 -0.353643 1.200434 0.493668 0.673234 -0.024443 0.504525 -0.271380 0.728754 0.339678 0.526488 -1.209271 -1.426235 0.707455 1.877982 -0.682094 1.752195 1.448641 -1.951567 -0.902186 0.083780 0.438582 0.615839 0.424868 1.031881 -0.832186 -0.500371 -0.211176
effects -0.154960 0.308538 -1.891948 -0.525539 0.297542 -0.032357 0.148113 -0.897408 0.014416 0.478284 -1.419570 0.161757 -0.126916 0.267337 -1.963889 0.307943 -0.310851 -0.684043 1.010259 1.781378 0.562794 -1.271265 -0.207364 -0.988633 -0.269010 0.292058 0.813077 -0.616341 1.658341 -0.648427 -0.771409
transfer 0.750726 -0.376065 -0.660824 -0.373001 -0.202174 -0.293778 -0.160802 0.730086 -1.392986 0.698040 -2.030352 -0.659935 -0.365782 -0.342803 -1.998341 -1.169216 1.410930 0.575466 1.567818 0.601479 0.194629 -0.222597 -1.938573 -0.547554 1.296249 0.738013 0.182434 0.398396 0.652650 0.809839 0.221675
temperature 1.162925 0.866447 -1.268687 0.035565 -0.172381 -0.541299 -0.009208 -1.221080 -1.220719 0.216218 -1.445405 -0.202716 -0.001083 1.462953 -0.226397 -0.267477 -0.443329 1.105755 2.007853 1.128600 -0.608170 -0.077246 -0.844420 -0.245945 1.593734 0.896776 -0.631532 -0.210339 0.423724 -0.698051 -0.015201
obtained 1.154350 0.696148 0.041154 0.010744 0.091537 -0.047897 0.123546 0.595802 -0.806536 -0.000749 -0.487653 -0.566630 0.942604 -0.139672 -0.306292 -1.431411 0.589242 0.597841 0.443335 1.659384 -0.188320 -0.116984 -0.289579 0.509469 -0.365126 1.744991 0.063033 -0.496641 0.238741 -0.004592 -0.353181
laminar 0.321764 0.726249 -0.623497 -0.705076 -1.173266 -0.147194 -0.586709 0.396294 -1.326325 0.331228 -0.869640 -0.410564 0.418948 0.128830 -2.115548 -1.281264 -0.457471 -0.414316 0.596867 0.167763 0.583282 -0.554004 -1.712186 -0.302236 -0.264981 1.652582 0.748510 0.240631 0.555770 0.098200 1.064243
velocity 1.024396 1.958823 -1.372541 0.477310 -1.144031 -0.184791 -0.003237 -0.798616 -1.807569 -0.811616 -0.010001 -0.628326 -0.150519 1.135440 -0.333583 -1.008995 -0.596948 0.821490 0.720237 0.335931 0.058486 -0.230160 -1.278448 0.614446 0.784523 0.714897 0.137466 -0.168658 0.207032 -1.024903 -0.701677
solution 0.852878 1.174816 -0.165701 0.620193 0.305359 0.304649 -0.861770 0.315822 -0.354501 -0.585518 -1.099944 -0.540722 1.712399 0.295342 -0.115668 -2.260997 -0.628582 -0.183966 0.021832 0.739823 0.510972 -0.423892 -0.853089 0.600096 -0.809084 1.579496 -0.347317 0.242581 -0.452916 0.094421 0.044560
given 1.127682 0.821400 -0.537935 0.490186 -0.545397 0.626182 0.679688 -0.235435 -0.633698 0.148817 -0.788082 0.136247 0.731411 -0.310370 -0.432206 -1.114957 -0.272592 0.525596 0.939161 1.432280 0.681340 -0.878329 0.020025 0.116497 -0.145219 1.363621 -0.469573 -0.507534 -0.453210 0.017955 -1.464285
equations -0.020838 0.883286 0.446706 0.513989 0.498438 0.888190 -0.927448 0.051270 -0.873289 -0.023535 -1.256469 -1.264718 1.252353 0.946928 -0.349305 -2.510676 -0.889476 -0.773298 0.290484 1.226013 0.698038 0.391737 -1.067052 -0.416180 -1.562246 0.516852 -0.006506 0.089758 0.264990 -0.823367 0.308129
ratio -0.099388 1.074418 -1.560289 1.360401 0.074462 0.860442 0.027421 -0.416789 1.569205 -0.473927 -0.403379 -0.987811 -0.266810 1.027859 -0.330241 -0.406501 1.182576 1.448188 0.104635 1.758414 0.305212 -1.021937 -0.805130 -0.720262 0.727122 1.349004 0.067075 -0.742473 0.475069 0.037861 -0.363209
jet 0.608428 1.817585 -1.571449 0.055823 0.081228 0.474665 0.640699 -0.151848 -0.112017 -0.282218 0.199718 0.216375 -1.297271 1.647814 -0.641142 -0.363973 0.053594 0.111096 0.085099 -0.038583 0.138696 -1.724135 -0.205327 -1.190016 -0.573422 0.755526 1.983574 -1.003084 0.016778 -0.940372 0.064606
effect 0.202635 0.989568 -0.998132 -0.125452 0.044031 0.036043 0.510515 -0.215189 -0.487891 0.283157 -0.803665 0.495860 0.247798 0.124743 -1.537989 -0.100368 0.989985 -0.755802 0.663940 1.159654 1.382230 -1.153517 0.233442 -1.072958 0.528576 0.335844 0.172951 -0.410156 1.134264 -0.939130 0.103350
experimental 0.793256 1.172141 -0.580396 -0.279073 -0.344487 -1.236753 0.515638 0.797759 -0.274497 0.569261 -0.860243 -0.656774 0.602937 -0.138871 -1.241580 0.592082 1.637192 -0.170597 -0.897083 1.327512 -0.343938 -0.309892 -0.273770 -0.054738 -0.433659 1.850769 0.576897 -0.254319 1.005398 0.323118 -0.879745
hypersonic 1.045649 0.477152 0.672516 -1.113110 0.585809 -0.738630 -0.455219 1.059788 -0.035488 -0.690949 -0.847929 -0.962448 0.637078 0.492896 -2.007595 -0.643046 0.290434 -0.563611 0.748343 0.546853 1.052330 -1.119191 -1.642639 0.665416 0.821368 -0.045914 1.364376 0.189838 -0.091730 -0.009915 -1.095505
plate 0.843588 1.172105 -1.736805 0.863590 0.634533 -0.185925 0.372782 0.089035 -0.621589 -0.579022 0.537590 -1.457703 1.175406 0.058680 -1.043967 -0.616390 0.048028 -0.258624 0.952222 0.371042 -0.479162 -1.440326 -1.123259 -0.486513 0.126306 0.839864 -0.199582 1.562584 -0.260400 0.600800 0.176175
made 0.188564 1.194698 -1.060093 -0.627652 1.183015 -0.508747 -0.101249 0.673970 -0.636047 0.232598 -0.667489 -0.761491 0.079001 -0.252093 -0.811621 -0.339268 1.159186 -0.576904 0.125655 1.102436 -0.543829 -0.444998 -0.365733 0.364377 -0.102118 1.820637 0.896974 -0.473673 -0.016259 -0.256959 -0.932797
analysis 0.974886 1.030737 0.415350 0.053294 0.344438 -0.435270 0.525409 -0.520687 -0.156873 1.583016 -1.409165 -1.064101 1.001156 0.430774 -0.584240 -0.146330 -0.141328 -0.045084 -0.205622 1.229179 0.084577 -0.328852 -0.835820 0.035198 -0.870975 1.485253 0.316027 0.267883 0.042115 -0.073835 0.148125
free 0.672848 0.830599 -1.438478 0.875696 -0.812535 0.006522 0.851133 0.323874 -0.620551 -0.855711 -0.378126 0.291748 0.052911 1.662214 -1.500217 -1.293601 0.109743 0.156061 0.738392 0.274064 -0.275677 -1.197260 0.018136 0.089374 0.364975 1.028528 1.649194 -0.344696 -0.639080 0.240654 0.766698
conditions 0.862523 0.320464 -0.387060 -0.486698 0.045117 -0.792543 0.191994 -0.620996 -0.123525 -0.440211 -1.349301 0.438977 1.112468 0.826230 -0.264674 -0.538155 0.102352 0.182438 1.702244 0.658033 1.302560 -0.396988 -0.627590 0.389699 0.127650 1.277535 0.596089 -0.895325 -0.309729 -0.553761 0.391774
presented 0.481244 1.188225 -0.079776 0.056002 0.283206 -0.139888 0.572868 0.222036 -1.208559 0.005770 -1.774460 -0.435735 0.627895 0.274973 -0.312195 0.002558 0.673171 -0.117804 0.217226 1.752714 -0.265746 0.248006 0.113149 0.517637 -0.524266 1.712229 0.187136 -0.212395 -0.237497 -0.046243 0.156426
distribution 1.119519 1.125367 -1.148487 -0.154550 0.001932 0.621735 -0.250804 -1.040532 -1.356271 0.168967 -0.157634 -0.304674 -0.466163 -0.276724 -0.036153 -0.779556 -0.001725 0.818898 0.684309 1.263811 0.027102 -0.271109 -0.868437 1.058644 0.924387 1.455496 0.063066 0.354458 0.141687 -0.396825 -0.264295
found 1.064454 0.613183 -1.437025 0.614307 -0.803302 0.087210 -0.395346 0.263332 -0.547248 -0.252937 -0.850952 0.346871 0.774641 -0.369248 -0.835955 -0.889996 0.305760 0.275253 -0.304017 1.153886 -0.089594 -0.377213 -0.294820 -0.025688 -0.228354 1.149949 0.121758 -0.848129 1.018497 -0.528020 -0.147863
dimensional -0.291709 1.482500 -0.623641 -1.491001 -0.140529 0.647270 -0.821562 1.035232 -0.066517 -0.755570 -0.374331 -0.387325 0.581992 -0.245416 -1.924854 -0.888137 -0.622835 -0.420058 0.406992 1.921838 0.644555 -1.038206 0.553078 -0.023028 0.131823 0.817205 0.616850 -0.130501 -0.815703 -0.456228 1.436382
numbers 0.417460 -0.230558 -1.250537 0.133574 -0.846320 0.217278 0.361798 1.071114 0.399446 -0.083202 -0.830699 -0.218323 1.043271 0.282715 -0.842605 -0.119459 0.967126 0.517194 0.240681 1.441816 -0.711628 -0.531802 -0.890420 0.577745 0.679976 0.480066 1.049791 -1.250253 -0.147943 -0.627424 -0.403092
stream 0.361785 1.036133 -2.185376 0.432717 -0.574912 0.388028 0.383012 0.048534 -0.568363 -1.286334 -0.828283 -0.208934 0.488210 1.927783 -1.276085 -1.049952 -0.145783 0.474684 0.913963 0.535712 -0.687183 -0.494261 -0.205724 0.016690 0.593576 0.388850 1.358360 -0.411895 -0.216933 -0.238267 -0.154787
reynolds 0.781664 0.030811 -1.322664 0.650872 -1.441432 0.581678 -0.098029 1.133026 0.627171 -0.288223 -0.511992 -0.142695 1.506244 0.709616 -1.255590 -0.659546 1.493194 -0.394989 0.611127 1.066813 0.046577 -0.178615 -0.721388 0.177150 1.177560 0.259084 0.214035 -1.150702 0.299142 -0.855468 -0.152968
high 0.114522 0.505940 -0.266728 -0.765326 -0.049418 -0.751578 0.160461 0.313403 0.399292 0.006333 -0.546411 -1.306175 0.940475 1.174064 -0.665501 0.287573 -0.529468 0.650295 0.525850 1.273269 -0.687823 -1.654869 -1.862381 -0.167776 1.063180 0.501927 0.299801 -1.286196 0.056833 -0.712955 -0.755761
lift -0.019619 0.814321 -0.188568 0.626170 -0.005106 1.237737 0.005721 -0.171041 -0.458350 -0.530646 -0.339865 -0.637921 -1.015348 -1.566509 -0.581192 -0.079562 -0.422876 1.634902 -0.184719 1.547999 0.494847 -1.350239 -0.410456 0.394904 1.504559 1.527186 0.581322 -1.270100 0.441757 -0.562887 -0.101153
problem 0.415904 0.538770 0.617827 0.150200 0.983189 -0.008603 0.184727 0.112038 0.653256 0.330004 -1.169860 -0.492033 1.154291 -0.533567 -0.637926 -1.460632 -0.825454 -0.131641 0.667835 0.887942 1.341069 -0.936145 -0.601334 0.207777 -0.525779 1.038053 0.179653 -0.152208 -0.580036 1.117836 0.451456
range 1.361855 0.636478 -0.374765 0.489514 -1.357701 -0.746961 -0.071660 0.102862 0.240230 -0.672179 -0.303771 -0.300743 1.212549 0.863794 -0.288809 -0.287571 1.610795 0.041539 0.080298 1.614631 -0.642178 -0.665045 -0.352998 0.674557 0.328259 -0.079428 1.236684 -1.397926 0.024129 -0.931019 0.179654
solutions 0.730821 1.366104 0.032148 0.116076 -0.367458 -0.471585 -0.486790 0.383327 -0.864281 -0.376585 -1.492134 -0.503021 1.330971 0.510579 -0.488734 -1.504077 -0.388351 -0.369218 0.175998 0.850139 0.547329 -0.129314 -1.051759 -0.087658 -1.165296 1.138593 -0.957537 -0.240260 -0.069478 -0.164802 0.325045
bodies 0.877405 0.434685 0.052831 -1.335078 0.122936 0.535994 -0.671032 0.740063 0.096078 0.018898 -1.428878 -0.616941 -0.178633 -0.889865 -1.617164 0.013666 0.490541 0.375549 -0.565374 1.578490 0.738763 -1.289528 -1.526336 0.456722 0.286207 -0.530426 0.551894 0.616513 -0.713750 -0.524886 -0.137368
air 0.919050 0.275264 0.179694 -0.541556 -0.539179 -0.802079 0.831714 1.418285 0.026279 -0.229180 -0.434028 -1.082011 -0.199660 1.168459 -1.082219 -0.018498 -0.445090 1.543352 0.834123 0.442218 -0.532624 -0.385156 -0.972885 -1.092893 -0.381231 0.827696 1.099805 -1.138684 0.703759 -0.428188 -0.452844
buckling 1.359558 0.889101 0.275706 1.240431 -0.485148 -0.206474 0.668715 -1.150289 0.357945 1.724981 -0.726115 -0.458487 0.985080 0.552465 -0.758624 0.463609 -0.945741 -0.914996 0.381784 1.834528 -0.532693 0.374829 1.614419 0.779504 -0.629567 0.099723 0.459474 0.882044 0.911927 -0.082963 0.807074
wave 1.299222 0.425370 -1.395089 -0.283865 1.105173 -0.471920 0.317150 -0.109375 -0.055415 0.447039 0.855281 -0.066339 1.336489 -0.715515 -0.560462 -0.530771 -0.670489 0.924928 -0.250165 1.094781 1.409100 0.162806 -1.036511 -0.519681 -0.513106 0.490158 1.701077 -0.627167 0.058335 -0.351668 -0.137416
case 1.064104 0.534751 -0.331239 0.076548 -0.256107 -0.266178 -0.297148 -0.402692 -0.828549 -0.375846 -0.935880 -0.737226 0.913246 0.303293 -0.824755 -1.293883 -0.895438 0.935307 0.518606 1.660942 -0.271667 -0.827710 -0.071764 -0.448961 -0.833579 0.213346 -0.025926 -0.243664 -0.334468 0.541517 0.114733
also 0.786722 0.227121 -0.608082 -0.518285 0.104851 -0.130316 0.068326 -0.606881 -0.651891 0.084605 -1.248508 0.105813 0.335111 -0.709254 -0.571885 -0.640699 0.666350 0.641845 0.188836 1.953119 0.210869 -0.809320 0.124514 0.306799 -0.176445 1.556918 0.293938 -0.733590 0.092642 0.530146 -0.003076
investigation -0.140816 0.848662 -0.655713 -0.505109 -0.147575 -0.447603 0.398092 0.893682 -0.111201 0.562415 -0.947206 0.486922 -0.125777 0.662545 -1.744747 0.284343 1.097169 -0.842924 -0.488299 0.540413 -0.153110 -1.248510 0.006678 -0.321805 -0.083541 1.554880 1.263785 -0.331624 0.099722 -0.344529 -0.904439
turbulent 0.415119 0.840589 -0.972515 -0.535209 -1.467889 0.012613 -0.221269 0.634303 -1.321176 0.390604 0.233011 -0.082850 -0.010700 -0.126296 -1.652148 -0.475648 -0.244362 -0.375880 0.743169 -0.330021 0.406859 -0.126837 -0.952643 -0.440322 -0.011151 1.678035 0.717235 0.050543 0.872364 0.209368 1.066122
drag 0.946946 0.429112 -0.174193 0.349997 -0.015177 1.406765 0.018529 0.411201 0.126104 1.005072 0.285087 -0.822765 -1.014001 -1.044168 -0.725138 -0.424417 0.016886 1.317095 -0.027042 1.481976 0.197412 -0.990042 -0.953747 -0.340704 1.322127 1.099155 1.062225 -1.166395 0.631842 -0.405735 -0.430299
edge 1.083225 -0.117451 -1.290568 0.337276 0.529570 0.673498 -0.131387 -0.424688 0.582763 -1.434134 0.427783 0.157613 0.981666 0.256916 -0.890208 0.873375 0.161737 -0.153494 0.841227 0.046362 1.178670 -1.701113 -1.085418 0.719222 0.267143 1.825286 0.439251 0.981691 0.429309 -0.484922 0.179823
shown 0.927897 0.594445 -0.445690 0.032492 -0.310773 -0.431872 -0.296223 -0.523689 -0.247014 -0.081785 -1.045577 0.011745 0.861263 -0.253073 -0.576850 -0.886451 -0.102468 0.143087 0.517095 1.075889 0.257757 -0.351547 -0.289776 -0.002741 -0.637261 1.218129 0.105972 -0.362414 0.626292 -0.084158 -0.262430
flat 0.639051 0.810827 -2.010956 0.450428 0.646613 -0.142168 0.002886 0.623196 -0.538200 -0.240407 0.239159 -1.567753 0.567064 -0.572537 -1.405869 -0.296326 0.492759 -0.917459 1.015269 0.430035 -0.592641 -1.526815 -1.338191 -0.588055 -0.015329 0.739536 0.090880 1.449455 0.141253 0.726831 0.090726
aerodynamic -0.840178 0.348182 0.457099 0.452348 0.343801 0.005867 0.693379 0.394042 0.214874 0.463262 -1.630030 -0.653630 -0.603600 -0.483484 -1.439043 0.488136 -0.433803 -0.207621 0.621069 1.203427 0.452138 -0.306780 -0.680155 0.750152 1.370095 1.123065 1.666960 -0.523174 0.706987 -0.652450 0.223553
wings -0.825038 0.247448 -0.756511 -0.201522 0.095503 1.043568 0.220259 -0.436624 0.557264 -0.542401 -0.101246 -1.134203 -0.188022 -0.056129 -1.169189 0.961060 -0.463089 0.865790 -0.621319 2.081097 -0.020675 -1.386567 -0.506809 0.625473 0.673732 1.247321 -0.105537 1.310012 0.196697 -0.123424 -0.409752
data 1.107752 0.876921 -0.046999 -0.646025 -0.658934 -0.782076 0.571521 0.968088 -0.523923 0.027288 -0.481347 -0.350506 0.920201 -0.851610 -0.566362 0.282404 1.392342 -0.191010 0.472144 1.483231 -0.299443 0.260991 0.748786 0.600234 0.160055 1.183713 0.873491 -0.666671 0.417203 -0.100409 -0.442648
small 1.348345 0.355198 -0.432708 1.077874 -0.231746 -0.958464 -0.874556 -0.379638 0.335767 0.051793 -0.547646 -0.151249 0.115235 0.672578 -0.868744 -1.416319 0.042445 -0.116996 -0.188480 1.103257 -0.541082 -1.428627 -0.105942 -0.465367 0.008201 0.091119 0.015649 0.198336 1.284782 -1.061837 -0.200740
angle 1.290033 0.402822 -0.556023 1.063881 -0.248240 0.188635 -0.736486 -0.755670 -0.024113 -0.528639 -0.426876 -1.121310 -1.394272 -0.539050 -0.679425 -0.320773 1.211064 0.745606 -0.340387 1.394440 -0.535556 -1.335548 -1.167616 0.310179 -0.218331 -0.324667 1.210350 -0.574064 -1.091698 -1.269994 -0.042247
cylinder 1.350771 0.218633 -0.652275 -0.264155 -1.240215 0.388646 -0.703847 0.432893 0.258163 1.026864 0.489937 -1.070820 0.126219 0.363479 -0.774650 -0.984080 1.195217 0.119268 0.675869 1.950706 -0.372486 0.265660 -0.451619 0.055399 -0.061320 0.005297 -0.036969 1.069668 -0.590398 0.428485 0.407373
one 0.833051 0.257547 -0.506047 -0.112933 -0.107755 -0.231058 -0.509042 0.146593 0.064706 -0.369685 -0.766201 -0.156548 0.747213 -0.061329 -0.609018 -1.184360 -0.438290 0.611827 0.559627 1.150985 -0.174174 -0.858190 0.272440 0.158498 -0.159157 0.387461 0.326190 -0.158355 -1.002392 0.028124 1.373508
wall 0.941602 0.495690 -1.619592 -0.417027 -0.189690 -0.416686 0.158661 -0.771335 -0.367135 0.095400 -0.404384 0.321744 0.270497 1.748677 -0.779029 -0.503799 0.518195 0.684179 2.088439 0.327828 0.273666 -0.131647 -0.480303 -0.690327 0.823131 0.820955 -0.367990 -0.276656 0.312415 0.138714 0.419462
speeds -0.556103 0.701695 -0.031758 -1.156297 -0.169797 -0.024925 0.210015 0.556956 0.306810 0.242930 0.141681 -0.926353 0.725016 0.183259 -1.169056 0.204411 0.022718 -0.305444 -0.213452 1.417171 0.100047 -1.912488 -1.382723 0.687642 0.972360 0.709282 0.889850 -0.238515 0.660312 -0.505990 -0.632208
speed -0.349495 1.147288 0.153474 -0.507101 -0.310005 -0.672891 0.320752 -0.184253 0.520711 -0.012249 0.174846 -1.451095 1.099035 0.405410 -0.574536 -0.359465 -0.260640 0.102027 0.055644 1.457035 0.042330 -1.630126 -1.201320 0.155930 1.224938 0.173416 1.152262 -1.463063 0.178558 -0.047198 -0.671072
used -0.470586 0.556082 -0.176238 -0.841045 0.282940 -0.309515 -0.083769 -0.281938 -0.477086 0.483093 -1.191442 -0.078102 0.820758 -0.227071 -0.050066 -0.775695 0.183311 -0.201909 0.320364 1.213799 0.025061 -0.041758 0.011810 0.388327 -0.368119 1.382050 -0.014040 -0.699109 0.254022 -0.752562 -0.761248
tunnel 0.089507 -0.007464 0.167349 -2.061971 0.660408 -0.802996 0.269098 0.277275 0.167126 0.035312 0.305827 0.123989 0.330504 1.438437 -0.853984 -0.733042 1.297015 -0.349707 1.276213 0.837891 -0.337584 -0.657339 0.393421 0.224144 0.517654 0.672121 1.930453 -1.377399 -0.019232 -0.563242 -1.862488
may 0.909476 -0.267428 -0.388850 -0.635867 0.173660 -0.160198 -0.186457 -0.791590 -0.249572 -0.211569 -1.050045 0.770766 0.797170 -0.372985 -0.126505 -0.385175 -0.494122 0.384286 0.453061 1.163955 0.518890 -1.136237 0.190722 -0.002339 -0.319675 1.276606 -0.023512 -0.653792 0.387946 -0.197775 0.382571
equation -0.215634 0.455489 0.058072 0.372911 0.827871 1.220296 -0.616106 -0.210791 -0.602108 0.479807 -1.231704 -0.198832 1.302736 0.392147 0.188701 -2.465352 -0.725900 -0.070899 0.593978 0.871361 1.050148 1.529197 -0.565254 0.137518 -0.397816 0.754728 0.152067 -0.204535 0.589613 -0.186478 0.298415
theoretical 0.485633 1.485733 0.091576 0.022033 -0.544826 -0.847324 -0.078088 0.680565 -0.232412 1.091017 -1.090178 -0.325822 0.104580 0.308372 -0.829120 -0.032174 1.160213 -0.516322 -1.207440 1.467928 -0.139459 -0.216254 0.011433 -0.123333 -0.030119 1.813438 -0.024678 0.220375 0.894378 0.128098 -0.816264
gas -0.210080 -0.249573 -1.267673 -1.688693 -0.320193 -1.037209 -0.388202 -0.009897 -0.441199 -0.568488 -1.129449 -0.729134 -0.351972 0.808454 -1.483484 0.008405 -1.134425 0.737528 1.253596 0.790275 -0.294155 0.151776 -1.164677 -0.244804 -1.062180 -0.843145 0.413617 -0.794298 0.052939 -0.181396 -0.004814
point 1.183275 0.366668 -0.385360 -0.766407 0.123116 0.266417 -0.301022 0.623436 0.025170 -0.656016 -1.434054 0.450223 0.112199 0.507645 -1.199309 -1.097431 1.080671 0.632085 1.017695 -0.297703 2.217606 -0.091356 -0.919998 -0.511442 0.223589 0.763580 -0.055373 -0.132863 0.178899 0.757918 0.040062
order -0.643192 0.835672 -0.664059 0.330544 1.165354 0.031666 -0.800804 -0.048045 -0.121438 0.216763 -0.886471 0.335591 1.105576 -0.362599 -0.289966 -2.348733 0.132395 0.092647 -0.929798 0.641656 0.569734 -1.109232 -0.540019 -0.122255 0.212476 0.117066 0.872244 -0.754617 1.066015 -0.768670 -1.132272
measurements 0.508402 0.367117 -0.537490 -0.689404 0.424866 -0.224578 0.778247 0.834715 -1.281486 -0.192059 -0.051832 -0.521628 -1.004767 0.075597 -0.800486 -0.101203 1.457310 0.040723 1.043300 0.687192 -0.668979 -0.456279 -0.559192 0.566215 0.747930 1.402742 1.438326 -1.252412 0.201398 0.327883 0.315091
transition -0.170605 0.387589 -1.605490 -1.178632 -1.078719 0.365970 -0.185348 0.851856 -0.559117 -0.060513 0.382306 0.377293 0.776718 -0.558549 -0.742629 -0.397119 1.940904 -1.277958 0.537025 0.235774 0.557870 -0.678314 -1.064810 -0.515104 0.094086 0.641787 0.462126 -0.990610 0.802527 -0.223090 0.503605
stagnation 1.210587 0.297600 -0.290909 -0.403488 0.215084 -0.386186 -0.141804 0.837891 -0.241632 -1.100781 -1.338060 0.383579 -0.065531 2.019429 -1.017446 -0.913855 1.298690 1.204954 0.436576 -0.353501 1.034901 -0.489510 -1.235859 -0.522398 0.702874 0.561960 0.013571 -0.245094 0.649229 -0.193884 -0.116196
large 1.385173 0.193320 0.185301 1.124764 -0.941197 -0.930705 -0.237902 -0.263679 0.857826 0.222903 -0.565925 0.367863 -0.555969 0.666915 -0.858829 -0.802479 0.280944 0.196633 0.183425 0.522237 0.357774 -1.408883 -0.193365 -0.566202 -0.220604 0.747745 -0.056539 0.027175 0.799307 -0.684894 0.109172
flutter -0.956330 0.243915 -1.018339 -0.236053 0.069919 -0.404059 0.253563 0.204181 1.033756 0.667718 -0.286843 -1.360993 0.865754 -0.650000 -0.945366 1.031305 0.006824 -0.469115 0.365264 1.837367 -0.626294 -0.529629 -0.791193 0.327401 -0.190751 1.156143 0.417992 -1.285140 0.630342 0.641535 0.386747
general 0.788441 1.017786 0.364989 -0.196847 0.268771 0.384077 0.241468 -0.414763 -0.016770 0.630442 -1.250384 0.027824 -0.030561 0.036969 -0.067197 -1.008154 -0.036411 -0.833223 0.864482 1.471964 0.407304 -0.582674 0.700072 0.761623 -0.861067 0.758334 0.036612 -0.067234 -0.154604 -0.005375 -0.298804
characteristics -0.955866 0.083435 -0.235659 -0.393970 -0.581680 0.132761 0.109486 -0.027154 0.176525 0.821254 -0.472089 -1.080689 -0.484134 -0.613616 -1.321176 0.397724 -0.024592 -0.326907 0.516414 1.293037 -0.511204 -0.000636 -0.622458 1.114996 0.102902 1.268679 1.633928 0.260732 -0.120381 -0.551197 0.108961
field 0.719587 1.312547 -1.026490 -0.088278 -0.155101 -0.672245 0.205928 -0.877882 -1.906625 -0.442888 -0.606851 0.020889 0.028435 0.287630 -1.281512 -0.246898 -0.067539 -0.227154 -0.488483 0.352173 0.662430 -0.435541 0.135735 -1.177581 0.312303 0.398046 0.206099 0.835628 -0.597654 0.170486 -0.648259
fluid 0.417640 1.106010 -0.660411 -0.384014 -0.141817 -0.154956 -0.567339 0.681546 -0.724045 -0.171851 -0.219402 -1.380962 0.594149 0.879146 -1.990414 -0.913328 -1.289781 -0.050583 0.494585 0.464570 0.112316 0.445424 -0.597641 -1.701187 0.090581 0.049762 0.052280 0.343913 -0.386906 0.291147 -0.722134
flows 0.556590 0.006681 -0.341812 -1.638147 -0.765850 0.019257 -0.895109 0.362283 -0.664959 -0.482007 -1.009943 0.499848 0.013778 1.008582 -1.838647 -0.838056 -0.924051 -0.233586 -0.245382 0.611186 0.203294 -0.741746 -0.336034 0.461658 -0.539303 0.100575 0.532531 0.140618 -0.281230 -0.037983 0.557268
leading 0.990635 -0.122894 -1.428500 0.262982 0.737166 0.783240 -0.455317 -0.034801 0.555151 -1.706724 0.265702 0.228079 1.194012 0.220353 -1.054666 0.968776 0.137636 -0.110717 0.178854 0.222602 0.932467 -1.608754 -0.760883 0.532055 0.267521 1.559985 0.387533 0.949388 0.381576 -0.377493 -0.361036
values 0.817459 0.641818 -0.164654 1.307132 -0.783048 -0.206270 -0.234066 0.373648 -0.404714 -0.885354 -0.609774 -0.244870 0.273190 0.169627 -0.400982 -0.935090 0.508619 0.662916 -0.281208 1.099648 -0.229500 -0.134703 -0.211201 0.421410 0.686584 1.309184 0.088887 -0.616517 1.092218 -0.095248 -0.240586
thin 1.236276 0.292628 -0.677214 0.178325 0.479293 0.272396 0.526116 -0.617935 0.928117 1.451044 -0.326832 -0.340796 1.005029 0.952747 -1.244009 -1.242667 0.162528 -0.823290 -0.103314 0.686711 -0.013152 0.274598 -0.262335 0.740695 -0.360293 -0.178380 0.614633 2.024024 -0.169412 -0.459260 0.351164
considered 0.643673 0.486899 -0.623584 -0.670254 -0.354754 -0.612889 -0.437725 -0.598586 -0.184183 -0.124891 -1.180150 0.099889 0.645731 0.352548 -0.441538 -0.428821 -0.285817 0.325812 0.212934 1.984975 0.058361 -1.280610 0.213637 -0.213842 -0.807504 0.294912 -0.119553 -0.338165 -0.070667 0.382725 0.241470
circular 1.104035 0.602995 -0.259117 -0.015124 -0.173450 0.475217 0.019811 0.030220 0.530804 1.395211 -0.169594 -1.589706 0.397412 0.358859 -0.925815 -0.834320 0.532879 -0.870002 0.293934 1.863344 -0.674379 0.556521 -0.523572 0.599791 -0.060951 -0.977798 0.666408 1.690342 -0.603687 0.169852 0.401079
flight 0.401731 0.871739 0.449958 -0.266719 -0.005450 -1.012530 1.276466 0.702046 -0.355265 -0.929076 -0.300555 -0.529031 0.044041 0.937127 -0.340043 -0.329412 0.418648 -0.075683 1.008832 0.677927 0.017446 -1.619927 -0.078450 0.751322 0.578222 0.315707 2.065347 -1.602837 -1.198091 0.174198 0.645167
low -0.203746 0.092959 -0.284033 0.096144 0.381569 -0.323144 0.121006 0.650944 1.146585 -0.488632 -0.136498 -1.105573 0.729397 1.326557 -0.762373 0.058555 0.334391 0.631416 -0.334285 1.512185 -0.006806 -0.866882 -1.265045 0.089353 1.257082 0.662684 0.909191 -0.802816 0.897864 -0.035828 -0.213876
region 0.851921 -0.470375 -0.854495 -0.212456 -0.374224 -0.074850 -0.672203 -0.071456 0.101028 -1.165368 -0.567448 -0.102982 0.218939 0.901630 -1.614606 -0.531541 0.093965 0.304336 -0.056163 -0.639823 0.388460 -0.299243 -1.252084 0.462369 0.033219 0.970119 0.786220 0.036657 0.416791 0.697962 -0.144645
thickness 0.379434 0.373981 -1.649891 0.698169 -0.303145 0.471467 -0.439907 -1.303952 1.023717 0.677461 0.330144 -0.207887 0.729686 0.387134 -0.187945 -0.912026 0.762367 -0.021633 1.003520 1.168924 0.771091 -0.601192 -1.047593 -0.124709 0.148215 1.098564 -0.613746 -0.090102 0.907266 -0.617063 0.354301
approximate 0.073285 1.321974 0.805012 -0.284589 -0.089432 0.268313 -0.672200 0.022797 -0.504829 0.105507 -1.171811 -0.610604 0.597995 -0.010423 -0.092941 -0.872179 -0.366052 -0.600098 -0.171939 0.574281 0.528935 -0.354196 -1.237761 0.716222 -0.636483 1.901721 -0.278292 0.224347 -0.288821 -0.429168 -0.473563
stability 0.135078 0.190804 -0.297698 0.190993 0.039131 0.810325 1.000550 -0.021146 -0.069751 1.009602 -0.962055 -0.485604 -0.239412 0.516884 -1.277235 -0.578088 -0.194085 -1.421029 0.454674 0.714859 -0.304338 -0.155582 -0.307730 1.523859 -0.885529 0.617979 1.378884 0.159504 0.313345 -0.653205 1.617301
tests 0.137107 0.519447 -0.079399 -0.005330 0.045007 0.083314 0.638816 0.601442 0.425020 0.261330 0.117062 -0.873178 0.302165 0.273582 -0.366468 -0.344923 1.560597 -0.702392 1.010889 1.641798 -1.351317 -1.135811 0.514065 0.057694 -0.415803 0.990826 1.345135 -0.980401 -0.584487 -0.218351 -0.929750
attack 0.557293 0.124852 -0.045646 1.186774 -0.511392 -0.134287 -0.521430 -0.795829 -0.069440 -0.347043 -0.909188 -0.842302 -0.773140 -0.575373 -0.661729 -0.409900 0.900210 0.707125 -0.747946 1.360128 -0.846290 -1.215791 -1.107564 1.028925 -0.035803 -0.138865 1.325776 -0.747645 -0.690287 -1.310279 -0.259389
distributions 1.068552 1.115030 -0.806682 -0.533079 -0.263713 0.456099 -0.076361 -0.525665 -1.593992 0.095193 -0.749770 -0.396044 -0.575436 -0.134348 -0.782048 0.537326 -0.161219 0.732654 -0.347492 1.857526 -0.509027 0.114119 -0.266337 0.649201 1.267423 0.689598 0.195766 0.599156 0.448720 -0.513935 -0.246145
model -0.094763 -0.251147 -0.740451 -0.927595 -0.284807 -0.341990 0.237425 0.109221 0.583587 1.065741 0.112497 0.025796 -0.466357 1.045364 -0.574516 0.135001 1.171832 0.177246 0.449871 1.491759 -0.429042 -0.442215 -0.272789 -0.215117 -0.562991 1.274808 0.736230 -0.222745 -0.934407 -0.351612 -0.021420
numerical 0.750292 0.929605 0.583647 -0.214791 0.313636 0.326554 -0.109163 0.714062 -1.001065 -0.380687 -1.773891 -0.463820 0.359524 -0.550473 0.344588 -1.045878 0.281467 0.177541 -0.062894 0.974117 0.371095 -0.437519 -0.949578 0.124005 -1.342348 1.085043 -0.959322 -0.749887 -0.762115 0.391775 -0.705234
problems -0.475641 0.836159 0.440006 0.248290 0.144465 -0.702783 0.450717 -0.498057 0.821802 0.571185 -1.100732 -0.684994 1.256032 0.190746 -0.644037 -0.882743 -1.361106 -0.822010 0.869491 0.446777 0.126898 -1.585043 -0.619428 0.225481 -0.252790 0.811122 -0.567686 0.001175 -0.646518 -0.254792 0.812860
form 0.259067 1.337544 -0.627852 0.251414 1.030884 0.896538 0.043390 0.477619 -0.497517 -0.138128 -0.129845 -0.301029 1.614812 0.565642 0.814031 -0.611846 0.171245 0.117972 0.212094 1.721154 0.716968 0.697114 -0.246843 -0.219298 -0.401722 1.121429 -0.454467 0.098920 -0.651087 -0.264915 -0.152114
stress 1.735558 0.954893 -0.384286 1.515227 -0.282595 -0.123414 0.568070 -0.666542 -0.996176 1.274808 -0.062248 -0.494499 0.813504 0.300009 -0.805917 0.811941 -0.494356 -0.222325 0.425584 0.830577 -0.021874 0.453502 0.018099 0.151662 0.812362 1.193410 -1.136418 0.274634 0.741892 -0.699650 0.893599
constant 0.923724 0.844072 -0.510739 0.637291 -0.448065 -0.348436 0.611919 -0.417933 -0.378282 0.282351 -0.554265 -0.906187 0.340341 1.516543 -0.182950 -1.220868 0.230847 1.051970 0.980965 0.364565 -0.236477 0.041382 -0.597522 -1.044188 0.070661 -0.084633 -0.565080 -0.351889 -0.706732 -0.035164 -0.251609
shells 1.741655 0.527244 0.220655 0.351273 0.984026 0.404849 1.040824 -1.156869 0.059463 1.414826 -0.841970 -0.058131 0.112436 1.228194 -0.670429 -0.553105 0.110516 -1.063754 -0.187891 1.018779 0.279431 0.485904 0.447553 0.601885 -1.032776 -0.903961 0.452798 1.347387 0.019372 -0.412971 0.109913
viscous 0.058067 0.931136 -0.273972 -0.251939 0.336575 -0.123574 -0.653634 1.192227 -0.172274 -0.788218 -0.195311 -1.243441 0.615951 0.071378 -2.055247 -0.567795 -0.614771 -0.780487 0.390864 0.598550 1.184992 -0.182044 -0.609279 -0.989531 0.309682 -0.481224 0.560439 0.678695 0.452011 0.136334 -0.545299
blunt 1.367252 -0.311241 -0.074675 -1.065261 0.705077 0.607452 -0.652831 1.343149 0.012054 -0.733468 -1.196559 -0.027465 -0.757889 -0.529321 -1.853617 0.501083 0.709995 0.250428 0.149228 0.691193 1.145294 -1.334591 -1.216330 0.512877 0.655332 0.421654 1.087511 0.909682 -0.869938 0.343540 -0.002567
paper 0.662984 1.108656 0.299778 -0.474816 0.392136 -0.632709 -0.156094 -0.518749 -0.133692 0.653436 -1.282497 -0.148708 1.055682 -0.028648 -0.211580 -0.470769 -0.986466 -1.430722 0.304032 0.767755 -0.080388 -1.193135 0.364206 0.225010 -0.854351 0.266025 0.339260 -0.147354 0.070543 1.419608 -1.175756
value 0.899554 1.036890 -0.555798 1.431396 -1.057539 -0.094818 0.061550 -0.123194 0.765298 -0.172490 -0.778446 -0.645340 0.850306 -0.107264 -0.443298 -1.011969 0.464407 0.306979 0.830607 0.070999 0.817242 -0.190637 -1.329796 0.067944 0.388107 0.247957 -0.692040 -0.759118 -0.300948 -0.213386 -0.014827
simple 0.364965 0.747217 -0.726375 0.244485 0.429022 0.464688 -0.404498 -0.082444 -0.570906 0.596126 -0.650619 0.395697 0.978904 -0.615320 0.019358 -0.911491 -0.142501 -0.281633 0.160892 1.161509 0.145069 -0.315952 -0.213892 0.275062 -0.224904 1.141397 -0.362373 0.234062 -0.239394 -0.327645 -1.352861
compressible -0.462719 1.214133 -0.486429 -0.822006 -0.781575 0.212666 -0.465651 0.151893 -1.142656 0.347582 -0.481661 -0.980170 0.249090 0.312006 -1.889027 -0.921087 -1.795127 -0.419311 0.391474 0.182046 0.482518 -0.155565 -1.252973 -0.711992 -0.153571 1.048399 0.359284 0.695595 0.161592 0.140936 0.719381
discussed 0.063976 0.018492 -0.465361 -0.543372 0.251126 -0.850119 0.295624 -0.469792 -0.470499 0.126033 -1.135117 -0.148048 0.952461 -0.538590 -0.095156 -0.241824 0.038573 0.358086 0.272741 1.364527 0.144169 -0.684994 -0.127903 0.592597 -0.789809 1.404528 0.064262 -0.423125 0.232161 1.189401 0.132384
first -0.010973 1.134284 -0.599499 0.161019 1.226240 0.043379 -0.477761 -0.081235 -0.762801 -0.007759 -0.783885 0.266376 1.014897 -0.244586 -0.192891 -2.465969 -0.012098 -0.212349 -0.189355 0.979039 0.291852 -0.605331 0.447014 0.010218 -0.167636 0.241046 0.800727 -0.851350 0.443725 0.208354 -0.235717
slender 0.240983 -0.497250 0.192993 -0.697977 0.414512 0.926384 -0.082855 0.746114 0.302287 0.183977 -0.653364 -0.262199 0.188065 -0.745340 -1.879583 -0.237610 -0.264942 0.250199 -0.989379 1.321427 0.734578 -1.521425 -0.842875 1.134604 0.392514 0.325373 0.258882 2.182385 -0.315901 -0.150325 -0.671237
use 0.264906 0.585732 0.441898 -0.095400 0.376712 -0.092610 -0.332279 0.055767 0.145142 -0.073485 -0.844750 -0.740249 0.307309 -0.059979 0.112085 0.077301 -0.360557 -0.279374 0.374127 0.696394 -0.162533 -0.287228 -0.961969 0.463348 -0.236435 1.361822 0.117903 -0.125238 0.214978 -0.422328 -1.349635
separation 0.560039 -0.331791 -1.566856 -0.900159 -0.482521 1.176839 -0.503659 -0.203237 -0.444702 -0.553945 0.053823 0.902860 -0.267329 -0.101874 -0.885812 -0.005752 0.042083 -0.207908 0.314077 -0.673608 1.064462 -0.433591 -1.252439 0.114628 -0.645917 1.606018 0.656417 0.309368 0.776424 0.115147 -0.115534
agreement 1.644053 0.139531 -0.151739 0.144903 -1.398812 -0.572233 0.273568 0.842095 -1.378905 -0.309752 -0.527734 0.053208 0.304430 -1.198725 -0.568413 -0.654018 1.068538 0.193041 -0.661241 0.697235 -0.806701 0.150628 0.312424 0.523270 -1.589861 1.205649 0.402603 -0.788402 1.727020 -0.095298 -1.294445
skin -0.344471 -0.520234 -0.833484 0.210884 -0.661140 0.301328 0.576189 -0.200858 -0.529904 1.651460 0.266502 -0.709625 -0.168547 -0.443197 -0.963355 -0.190337 0.564603 0.221028 1.547027 0.188370 -0.479945 0.113085 -1.226434 -0.812819 0.931343 1.466754 -0.501692 -0.616588 0.901832 0.377761 0.392526
three -0.234375 1.566932 -0.392464 -0.885223 0.409371 0.503806 -0.590642 0.657796 0.136219 -0.309940 -0.705773 -0.019570 0.613737 -0.611699 -0.593817 -0.928142 0.463828 -0.660794 0.265254 1.612052 1.192344 -0.365350 0.364358 -0.112062 -0.444628 0.617560 0.114403 -0.310792 -0.465381 -0.355865 0.884298
shear 0.631596 1.302091 -1.102635 0.757636 -0.511974 0.122475 0.218912 -0.136222 -1.087670 0.042866 0.246317 -0.105427 0.959419 0.003840 -1.580910 -0.535748 -0.504606 -0.858767 0.909184 0.786607 0.149422 -0.588648 0.502451 -0.354131 1.547108 0.260621 -0.329299 1.006616 0.274266 0.304395 0.408644
based 0.773087 -0.101352 -0.051339 0.581492 -1.262482 0.373527 0.404406 0.759718 0.863393 1.131183 -1.110700 0.270124 0.913670 1.289921 -0.910190 -0.908589 0.926315 0.070874 0.096135 0.264684 0.316424 0.292362 -1.006747 1.081511 -0.140289 1.549508 0.057284 0.225129 -0.581259 -0.798478 -0.919818
nose 1.792124 -0.806442 -0.501478 -0.281780 -0.058854 0.945999 -0.322610 0.653497 1.002044 -0.120586 -0.269376 0.035532 -1.403347 -0.245736 -0.829623 0.352652 1.074816 0.437036 0.451736 1.074417 1.168294 -1.477212 -0.752387 0.133939 -0.329465 0.173238 0.689402 0.085179 -0.186552 0.192137 0.168341
present 1.154133 0.733922 0.185085 -0.403247 0.095607 -0.784518 0.045861 -0.287499 -0.103182 0.374474 -1.389217 0.132226 0.780187 0.230714 -0.740819 -0.012893 -0.002120 -0.889004 0.581450 0.685142 -0.059358 -0.835426 0.272223 0.370004 -0.554602 0.583624 0.634401 -0.432391 0.283220 0.918148 -1.016564
cylindrical 1.152486 0.362380 -0.665328 -0.095930 0.787650 0.973806 1.129908 -1.081232 -0.210970 1.996808 -0.405622 -0.267944 0.325032 0.946677 -0.826408 -0.376376 0.327486 -0.557841 -0.310500 1.544758 0.374543 0.642938 -0.110101 0.639785 -0.974399 -1.293816 0.306950 1.331942 0.194044 -0.359118 0.662183
compared 1.465850 0.852756 0.168190 0.374545 -0.499667 -1.235178 -0.146124 0.796807 -0.844192 0.028712 -0.582905 -0.269583 0.097133 0.190260 -0.501943 -0.509748 1.257344 0.360366 -0.968854 1.019815 -0.393429 -0.444028 -0.385710 0.163202 -0.374014 1.382289 -0.397902 0.213007 0.795567 -0.053404 -0.661693
design 0.408383 0.936431 0.594520 -0.621624 0.300862 0.044183 0.312621 -0.336259 0.459500 0.829721 -0.435343 -0.147127 -0.046815 0.391161 0.492678 0.568038 -0.299836 0.170055 0.463383 1.068867 -0.090448 -0.302875 0.000351 0.411993 0.297348 1.523537 1.091657 -0.611087 -1.805021 -0.288853 -0.273537
methods -0.506668 0.652516 0.785224 -0.616797 -0.007601 -0.001243 -0.503879 -0.028520 -0.542213 0.548572 -1.630214 -0.041303 0.036055 -0.158648 0.127985 -0.737056 0.196815 -0.195362 -0.774977 0.868812 -0.333998 -0.828944 -0.686042 0.468179 -0.950416 2.260207 -0.328775 0.086455 0.377477 0.025001 0.365931
wind -0.035189 0.254222 0.414080 -1.759625 0.409869 -0.274679 0.525773 0.306962 0.076821 -0.074039 0.858449 -0.128149 0.310958 1.347562 -0.541863 -0.773822 0.866853 -0.422239 0.978857 1.004534 -0.206518 -0.775867 0.365822 0.659550 0.657795 0.687894 1.552908 -1.468797 0.277103 -0.197845 -1.489307
cone 1.468207 -0.869237 -0.429965 -0.326557 -0.007469 0.180365 -0.760793 0.529035 0.199617 0.121443 -0.113480 -1.092946 -0.510522 -0.535277 -0.539123 -0.551252 1.006264 0.016634 0.312301 1.448206 -0.610816 -1.020290 -1.330734 0.657035 -0.630789 -0.565721 0.532195 0.163851 -0.631166 0.211117 0.066823
function -0.137425 0.734189 -1.034093 0.845452 -0.218134 1.505758 -0.092172 -0.025852 -0.629765 -1.246954 -0.862449 0.347355 0.748896 0.752387 0.282244 -0.584278 -0.455661 0.971815 0.434166 0.607523 0.282209 1.111100 0.155253 0.367104 0.710084 1.029342 -0.774930 -1.069062 -0.085596 -0.433004 -0.150555
coefficients 0.110554 0.010733 -0.095276 1.259696 0.154964 0.862596 0.377166 1.186879 -1.062928 0.032012 -1.033172 -0.944542 -0.357133 -1.059197 -0.958170 -0.181965 0.162836 0.767460 0.219580 1.116159 0.002671 0.660162 -0.310725 -0.213785 1.090504 0.924207 0.219116 -0.230088 0.980653 -0.076674 0.272861
calculated 0.025479 0.749756 -0.281536 -0.009199 -0.424029 -0.160003 0.165510 0.060301 -0.964390 -0.570955 -1.044957 -0.333548 -0.334576 0.068291 -0.471186 -0.261129 -0.169568 0.961375 -0.316837 1.337324 -0.526934 -0.539040 -0.054131 0.729045 0.346260 1.410542 -0.104282 -0.425008 0.914851 -0.318193 -0.114607
cylinders 1.155233 0.634812 -0.321256 0.182519 -0.178168 0.145030 0.952246 -0.113265 0.791495 1.393425 0.097908 -1.008728 0.166645 0.782300 -0.494364 0.039863 0.722738 -1.024159 0.750567 1.691870 -0.820374 0.126957 0.804292 0.140222 0.132463 -0.258952 0.205298 1.429099 0.008920 0.785863 -0.414563
study 0.436306 1.251900 -0.290688 -0.706444 0.677602 -0.553674 0.221581 0.179580 -0.311549 0.296394 -0.420686 -0.782029 0.239665 0.115133 -0.948974 0.380706 0.351055 -0.820725 -0.297263 0.572083 0.527587 -0.443825 -0.360962 -0.185384 0.132597 0.694401 0.447301 0.271493 0.511823 -0.271889 -1.053752
subsonic -1.218812 0.636796 -1.016538 -0.580107 -0.303972 0.521922 -0.079585 0.243401 -0.243439 -0.893274 -0.026821 -0.494464 0.610276 0.914445 -1.319530 0.019052 -1.200700 0.347779 -0.871487 0.915186 -0.560483 -1.462564 -0.850534 0.541489 1.076046 1.408947 0.597481 -0.040483 0.565236 -0.494051 -0.360699
type 0.569035 -0.326932 -0.098082 -0.703146 0.103503 0.601335 -0.694147 -0.022163 0.879212 1.127178 -0.610500 -0.007788 0.741838 0.237943 -0.641199 -0.199726 -0.426054 -0.897858 0.997157 0.970293 0.740813 -0.340330 -0.145375 -0.251756 -0.654384 0.797215 0.671888 0.302253 0.123070 -0.295302 0.300168
force 0.132250 0.885537 0.421546 0.746086 -0.587906 1.165606 1.737422 0.603821 -1.389111 0.226626 0.483848 -0.755369 -0.746676 -0.191490 -0.636390 -0.601217 0.720074 1.148388 0.619688 0.515986 0.624805 0.325122 0.561409 0.207037 0.347565 1.330695 1.210739 0.244727 -0.054175 -0.574516 -0.290798
shape 1.378012 0.535855 -1.210797 -0.324824 -0.284344 0.755251 -0.322688 -0.823315 0.192273 0.496334 -0.048313 0.523668 0.589054 -1.318026 0.293763 -0.638919 0.099551 0.725250 0.544864 1.156351 1.700145 0.145071 -0.861009 0.950812 0.358081 -0.297054 0.829283 -0.266054 -0.389508 -0.529948 -0.374910
axial 0.367605 1.697909 0.048085 0.002812 -0.650978 0.395561 0.630475 -0.895612 -0.624388 1.680607 0.577836 -0.843757 -0.281103 1.062321 -0.637726 -0.693769 0.090622 0.157171 0.229407 1.496523 -0.128522 0.411191 0.624894 -0.369194 0.538136 0.004423 0.979656 1.416263 -0.324836 -0.015107 -0.011669
thermal 0.610741 0.473068 -0.199713 0.082842 0.580676 -0.717755 0.769081 -0.555382 -0.374896 2.256962 -0.591180 0.225476 0.572606 1.125995 -0.772615 0.840653 -0.968236 0.042039 0.107436 0.706617 0.018356 0.628443 0.024158 -0.904100 0.529870 1.140152 -0.635968 0.057111 1.221371 -0.867457 -0.005861
incompressible -0.189039 1.273468 -0.275023 -0.576087 -0.880018 0.064708 -1.092392 0.635190 -0.983253 -0.433247 0.071337 -1.507475 0.415961 0.004544 -1.508769 -1.263010 -1.110808 -0.026553 0.580536 1.252147 0.166841 0.406927 -0.422439 -0.654881 -0.009518 0.416637 0.208870 0.690507 0.062663 0.507857 0.432559
nozzle 0.287909 1.099980 -0.098381 -0.799904 0.033933 0.541046 -0.559616 -0.311319 0.374332 -0.731735 -0.397014 -0.167949 -1.351031 1.706537 -0.170913 -0.172187 0.946911 0.336159 0.259082 0.445204 0.406771 -0.226603 -0.356374 -0.376326 -0.513284 0.180707 1.044024 -0.735256 -1.477923 -0.885533 -0.411261
zero 0.406126 0.488650 -0.538289 0.559296 0.432120 0.372837 -0.443288 -0.827659 -0.604749 -0.436537 -0.724123 -1.074692 -0.986213 -0.697762 -0.503618 -0.941075 0.319978 1.223666 -0.379940 0.867897 -0.069546 -1.467744 -1.421816 0.169297 0.079798 -0.358397 0.475528 -0.272691 -0.135319 -0.098877 -0.222800
coefficient 0.837424 0.046055 -0.512734 1.262124 -0.473468 1.036407 0.207549 0.153829 -0.518597 0.543162 -0.746642 -0.287513 -0.731097 -0.960987 -0.720084 -0.826318 0.218502 1.343627 0.506686 0.198904 0.028572 0.389385 -0.863004 -0.355582 0.896765 1.117162 0.179003 -0.966185 0.949013 -0.183100 -0.576722
section 0.680654 0.700464 -0.800101 -1.328648 0.032974 0.999758 -0.021369 -0.143675 0.171569 -0.548967 -0.538228 -0.339728 -0.113010 -0.363532 -0.070957 0.223906 0.475792 0.099500 1.452268 1.040200 -0.017723 0.199268 0.916686 0.888389 1.220230 0.526949 0.527384 0.403865 -1.271295 0.343592 -1.056393
various -0.059863 0.357858 -0.163425 0.255363 -0.089187 -0.323113 0.675292 -0.182323 -0.288958 -0.069734 -0.548872 0.052149 0.234952 -0.078608 -0.225112 0.001702 0.925466 0.486848 -0.229371 1.234844 0.538801 -0.840919 -0.676051 0.673489 -0.465413 1.348526 0.285067 0.083341 0.057815 -0.556117 0.960911
developed 0.255047 0.518054 1.231254 -0.400286 -0.560980 0.038949 -0.182568 -0.130594 -0.452962 0.923306 -0.929456 0.487125 0.547690 0.468281 -0.244123 -1.582159 -0.710827 0.242597 0.184321 0.435645 0.244319 -0.289128 -0.064817 0.751874 0.292039 1.387467 0.585918 0.275345 -0.043935 -0.278383 -0.019348
static 0.326216 0.532480 -0.747364 0.407262 0.884330 -0.167478 0.678032 0.070492 0.067453 -0.365410 -0.904061 -0.297933 -1.278948 1.372428 -0.316369 -0.349287 0.634344 -0.500083 0.786636 0.372424 -0.890927 0.222396 -0.083657 0.817750 -0.195426 0.723008 2.384749 -1.047757 0.423637 -0.106350 0.728814
time 1.085408 0.488847 0.083872 0.627912 0.102724 0.075998 -0.460227 -0.181182 0.441989 -0.100815 -0.719353 -0.342190 0.830534 0.532360 0.491263 -0.521880 -1.039372 0.619125 1.350421 1.189622 -0.085095 0.719271 0.085299 0.620181 0.961127 0.148822 -0.219242 -1.434351 0.319774 -0.108569 0.533395
well 0.841456 0.838560 -0.052184 0.057170 0.404773 -0.906992 -0.396779 0.432717 -0.809930 -0.653833 -0.831718 0.356051 1.146219 -0.482064 -0.193464 -0.729047 0.338663 0.375124 -0.619043 0.590546 -0.164394 -0.144457 0.146550 -0.025268 0.811906 1.317698 -0.287055 0.205469 0.807262 0.457260 0.015905
maximum 0.870239 0.751252 -0.042428 1.636454 -0.838490 -0.046386 0.191585 -0.901837 0.404833 0.181900 -0.330024 -0.071847 -0.426548 -0.544688 -0.483672 -0.317101 0.509313 1.115991 0.073379 0.775327 0.646840 -0.428156 -0.398737 -0.145251 1.425899 0.564166 -0.172469 -1.279457 -0.395415 -0.543019 -0.047756
motion 0.370229 0.625781 0.383018 0.417536 -0.046574 0.745487 0.293620 1.021413 -0.797155 -0.370068 0.286738 -1.571273 0.356096 0.090577 -1.069993 -0.843870 -1.288319 -0.453724 0.279395 0.882817 0.762237 0.205624 -0.238418 -0.598793 -0.058913 0.141554 0.516790 -0.193701 -0.091552 -0.255391 0.329194
test 0.464534 0.469684 -0.008948 -1.074842 -1.047592 -0.180470 0.556722 0.407739 0.177321 -0.377684 -0.437472 -0.013971 0.627981 0.504810 -0.270934 0.393895 1.042867 -0.377474 1.260439 0.744681 -0.191335 0.295719 0.980594 0.548413 0.234161 1.311606 0.899014 -0.701006 -0.741834 -0.301377 -0.689424
angles 0.353658 -0.524149 -0.051380 0.670624 -0.681700 -0.342483 -0.345308 -0.631325 0.361993 -0.208670 -0.664899 -0.326416 -0.189227 -0.199888 -0.744465 -0.043866 0.638094 0.369998 -0.585663 1.347055 -0.987698 -1.744241 -0.849944 1.331258 0.093188 -0.311209 1.061781 -0.674021 -0.092647 -1.411815 0.607447
cases 0.841964 0.277877 -0.361433 -0.103566 -0.480221 -0.294379 -0.632471 -0.467608 -0.569870 -0.646655 -1.378916 0.182150 0.336703 -0.383354 -0.580649 -0.372406 -0.380777 0.618274 0.185627 1.376140 0.010297 -0.734577 0.351823 -0.346420 -0.698769 0.201704 -0.368534 -0.260696 0.130880 0.177722 0.621468
due 0.068830 0.069657 -0.395070 0.952294 -0.153236 0.688981 0.749506 -0.733871 -0.630796 0.799013 0.133358 0.250443 -0.399065 -0.901690 -1.243372 -0.086127 -0.676052 0.633975 0.335108 0.641533 1.138488 -0.557513 0.246626 -0.844328 0.416190 0.521513 0.511015 -0.026024 1.020472 -0.917811 0.657369
normal 1.132212 0.602925 -0.878676 0.476824 -0.279123 0.362816 0.960130 -0.159578 -1.235045 0.031390 0.580764 -0.338458 0.048992 -0.343132 -1.022034 -0.349437 -0.240220 1.440055 0.477203 0.609537 0.399536 0.612038 0.403568 -0.073236 0.408196 0.396963 1.768120 0.639742 -0.082246 -0.674541 0.156275
along 1.441740 1.140174 -1.645876 -0.322313 0.234152 0.766486 0.238301 0.075246 -0.963515 -0.497837 0.474239 -0.316319 0.108467 0.985789 0.299227 -0.255132 0.511129 0.513266 1.180603 0.262822 -0.114456 -0.112324 -0.603483 0.302535 -0.013340 1.119398 0.046858 1.292029 -0.545350 -0.055729 0.133491
uniform 0.857206 1.033399 -0.558859 0.447754 0.178057 0.019823 0.878966 -1.115028 -0.431693 -0.225714 0.155465 -1.092184 0.126985 1.317699 -0.776595 -0.753613 -0.502539 0.192038 1.453065 0.554874 -0.150125 0.103312 0.688331 -0.284058 0.601055 -0.128229 0.526226 0.947588 -0.647048 0.510679 -0.081957
using 0.014413 0.127580 0.045104 -0.843055 0.350425 0.076978 0.065736 0.792292 -0.469102 0.265157 -0.901471 -0.222958 0.236871 0.420785 -0.432073 -0.796410 -0.185239 0.521327 0.176661 0.496802 -0.949438 0.336846 -0.197900 0.651477 -0.360547 1.122942 0.463530 -0.228265 0.154070 -0.077458 -0.361768
base 0.859152 0.482833 -0.700825 -0.639266 0.584270 1.036367 -0.620791 0.600873 -0.062799 0.180576 0.361376 -0.525622 -1.463562 0.692296 -0.650887 -0.179524 1.105749 -0.409037 -0.220425 0.962030 0.331827 -1.812277 -0.851686 -0.352454 -0.509977 0.198695 0.816541 -0.353425 0.430557 -0.561884 0.184955
local 0.108294 -0.173645 -0.787456 0.688786 -0.326537 -0.261195 0.435701 -0.125232 -0.443217 0.998875 -0.949539 -0.224004 0.530583 0.277456 -1.116339 -1.125167 0.544791 0.204374 0.837416 -0.017350 -0.413509 0.010063 -1.289299 0.394234 1.623352 0.558925 -0.111551 0.197166 0.140103 0.068296 -0.427031
derived 0.597912 0.596562 0.263362 0.177541 0.783670 0.679301 -0.149737 0.107926 -0.848920 0.106889 -0.641196 -0.663798 0.074606 -0.305402 -0.063683 -0.772554 -0.610329 -0.457211 0.638168 1.085718 0.267816 0.355575 -0.162591 0.437379 -0.493541 0.273609 0.151762 -0.118344 -0.146241 -0.877335 -0.857734
friction -0.487610 -0.494519 -0.764492 0.171996 -0.688978 0.292395 0.318643 0.542070 -1.208952 1.266501 0.109055 -1.198820 -0.383217 -1.149543 -1.286917 -0.665110 0.304671 0.305674 1.654264 0.142406 -0.665485 0.353980 -1.342857 -0.552281 1.005171 1.488880 -0.178465 -0.772547 1.136867 0.722848 0.429346
terms 0.140354 0.429086 -0.774845 0.655480 0.873181 0.663291 -0.453118 0.271118 -1.058782 -0.110295 -0.797828 0.458492 1.056123 -0.201886 0.185116 -1.455645 0.392426 0.110630 -0.052619 1.582392 0.238734 0.844435 0.533602 -0.409193 0.803999 -0.149653 -0.345117 -0.251293 0.105480 -0.413135 -0.269462
waves 0.873014 0.611223 -1.157775 -0.948678 -0.054143 -1.334568 0.152488 -0.431184 -0.291151 -0.144458 0.456644 0.579462 0.925045 -0.640001 -0.724445 -0.086235 -0.390587 0.484806 -0.046443 0.387417 0.741268 0.455784 -0.047181 0.276730 -0.360350 -0.119518 1.802492 -0.320776 -0.194227 -0.287209 -0.722529
past 0.494596 0.406434 -0.815945 -0.465013 -0.183500 0.588458 -0.956998 1.181675 0.380099 -0.420992 0.196672 -1.148019 0.930771 -0.010956 -1.888992 -0.770305 -0.868892 -0.493699 -0.367639 0.410921 0.021358 -0.494777 -1.013475 0.014496 0.856636 -0.912502 0.085223 2.284584 -0.933813 0.283123 -0.748153
steady -0.512008 1.041514 0.392377 -0.005056 -0.345548 -0.488104 -0.118934 0.380994 -0.887524 -0.738648 -0.600989 -0.759498 1.083519 0.174113 -1.537147 -0.333322 -1.669719 -0.334038 -0.050876 1.275554 0.641600 0.027727 0.437296 -0.171900 0.130817 -0.177115 0.873049 -0.021063 0.034335 -0.079124 1.136092
applied 0.109955 0.686663 0.264590 -0.032520 -0.432473 -0.109426 0.215650 -0.576859 -0.798632 0.264148 -0.437631 -0.179116 0.540446 -0.413623 -0.759697 -0.715486 -0.138149 0.170316 -0.511386 0.640192 0.451579 -0.615286 0.018682 0.184269 -0.337726 1.084848 -0.042587 0.775661 -0.366328 0.307156 -0.077597
equilibrium 0.756678 -0.387451 0.466585 -0.239206 0.812774 -0.526693 -0.020088 -0.126356 -0.461964 -0.338778 -1.713378 -0.297594 -0.273507 1.598339 -0.445181 -0.312154 -0.612705 0.920329 0.343497 0.424886 0.544945 0.752070 -0.487534 -0.714578 -1.351626 -0.366603 0.703925 -0.030627 0.117112 -0.731875 0.160195
interaction 0.222810 0.690151 -1.207743 -0.142667 0.409378 -0.753546 0.294939 -0.074063 0.284753 -0.201475 0.122268 -0.200797 1.220002 -0.061306 -1.411979 -0.372708 -0.520469 -0.665342 0.768030 0.063485 1.172967 0.264349 -0.201843 -0.466459 -0.501372 0.319970 1.957083 0.129450 0.510442 0.173061 -0.328473
length 0.479322 -0.071244 -1.143735 0.758129 -0.895742 1.119151 0.651662 -0.238876 1.312543 0.762885 0.999242 -0.065806 0.256878 0.919738 -0.125404 -1.204429 1.006818 0.548443 0.474590 0.810168 0.149229 -0.409738 -0.098417 -0.181118 -0.169478 0.866325 -0.427922 0.176763 -0.358519 1.360300 -0.486417
plates 0.551108 0.719415 -1.029032 0.998225 0.512901 -0.151516 0.408296 -0.047135 0.069606 0.064780 -0.585661 -0.626300 0.286553 0.608310 -0.791478 0.104334 0.052055 -1.440077 0.353045 0.699942 -0.603088 -0.873222 0.824673 -0.300628 -0.587153 -0.300951 -0.799975 2.001112 0.006848 0.586646 1.114060
second -0.627182 0.467592 -0.667155 -0.022876 0.770229 0.121421 -0.372087 0.407193 0.192330 0.713615 -0.697009 0.415329 1.109631 -0.003839 -0.598608 -1.594029 -0.169295 0.547513 -1.517269 0.408108 0.007937 -0.762090 -0.574562 0.164226 0.248445 0.387522 1.032547 -0.373714 0.824517 -0.397758 -0.831976
revolution 0.538972 0.663188 -0.074522 -0.933962 -0.073533 0.374091 -0.350871 -0.021231 -0.214501 0.874678 -0.742410 -0.157542 -0.387638 -0.272285 -1.020644 -0.592116 0.002607 0.766677 -1.632412 0.815436 0.669603 -1.171396 -1.405590 -0.030560 0.137294 -0.896753 0.405543 1.044150 -0.768237 -0.646854 -0.505115
several -0.015628 0.764190 -0.169959 -0.710066 0.275650 0.116240 -0.147944 0.714114 -0.728164 -0.202999 -1.200049 0.258990 -0.201582 0.248036 -0.096820 0.163671 0.513547 -0.113940 -0.270105 1.331960 -0.270495 -1.134372 0.062759 -0.160611 -0.218791 1.249633 -0.375956 0.021878 -0.684669 0.057455 -0.402276
determined 0.637957 0.405666 -0.988558 0.362919 -0.860920 0.492795 -0.325042 -0.230413 -0.372693 0.115500 -0.164138 0.542117 0.386598 -0.180451 -0.357270 -0.607501 0.455515 0.504358 -0.093667 1.141186 0.380697 0.455326 0.427299 0.266922 0.441188 1.353539 -0.064622 -0.227405 0.443740 -0.057239 -0.275209
transonic -1.087157 0.212641 -0.268584 -1.356327 -0.142053 0.128620 -0.563095 0.321160 0.784548 -0.411083 0.451572 -0.013361 0.902065 0.568253 -1.051234 -0.025911 -0.106833 -0.365411 -0.406475 1.081351 -0.177682 -0.706418 -0.275064 1.285665 0.636200 0.875145 1.032730 -0.216847 0.575712 -0.964218 -0.594555
x 0.749908 0.026087 -0.339264 0.665724 -0.882969 0.679361 0.329409 1.131101 0.323988 -0.704563 0.758002 -0.152494 1.313031 1.365387 -0.463427 -0.525138 1.106829 0.282319 0.249998 0.290383 -0.217905 0.743711 -0.298880 0.943569 1.106371 0.332165 0.336925 -0.269819 -1.227665 -0.816368 -0.833574
calculation -0.566030 0.839835 0.194971 -0.701134 0.111424 0.200213 -0.196412 -0.073362 -1.218216 0.400340 -1.374606 -0.141315 -0.253260 -0.585917 -0.812750 -0.399263 -0.805250 0.049696 -0.680397 0.457920 0.367256 0.018881 -0.893858 0.500043 0.115942 1.526101 0.255082 0.491060 0.034350 0.013648 -0.326216
near 0.999770 0.244462 -0.948779 -0.642122 0.295031 0.092081 -0.478890 -0.254325 -0.325100 -1.330242 -0.184514 0.231027 -0.303919 0.748379 -0.604013 0.164522 0.842816 0.473667 0.075159 -0.049526 0.938186 -1.449559 -1.026851 0.107913 0.101119 0.231971 0.002715 0.089777 -0.113902 -0.316172 -0.019497
properties 0.402715 -0.366060 -0.447718 -1.018222 -0.452914 -0.119714 0.567982 0.338653 -0.821725 0.522699 -1.145263 0.379233 0.073631 1.411227 -0.770250 0.237993 -1.174829 1.026501 0.250016 0.446903 -0.171384 0.813680 -0.738465 -1.195582 -0.687053 0.759113 -0.594566 -0.235785 -0.435024 -0.888967 0.030134
bending 1.090493 0.555022 1.018661 2.299176 0.432109 0.429022 1.193946 -0.058358 0.238222 0.390439 0.230830 -1.112583 0.017496 -0.211243 -0.755862 -0.754823 -0.081338 -0.808377 0.483156 1.220554 -0.410456 -0.947625 1.016529 0.107026 0.211560 -0.065672 0.430739 0.995558 -0.176611 0.429873 0.168068
rate 0.131087 -0.413121 -0.123393 0.713839 0.301616 -0.237510 -0.114425 -0.102276 -0.690515 0.591351 -1.595147 0.045850 -0.469382 0.023091 -0.224248 -1.372550 1.261566 1.021158 0.944649 0.283649 0.436237 0.706121 -0.504399 -1.168035 0.798299 -0.086751 0.118247 -0.645862 0.339416 0.340462 0.348655
aircraft -0.250247 1.011668 -0.113811 -0.806178 0.863102 -0.851313 0.946339 -0.144633 0.298769 0.946308 0.166361 -0.031649 0.267385 0.420822 0.098648 1.428527 -0.628206 0.043707 -0.191819 0.806078 0.471518 -1.944123 -0.576555 -0.732779 0.578300 0.627713 0.980441 -0.209595 -0.391247 0.166038 0.892656
layers 0.401248 0.941376 -1.059051 -1.557627 -0.971992 -0.502481 -0.700760 -0.128448 -0.546638 0.081900 -0.036670 0.505851 0.745198 0.300260 -0.664618 -0.179164 -0.523813 -0.244228 0.760122 -0.286789 0.603832 0.053445 -0.857926 0.059421 -0.001972 1.048940 0.456328 0.134478 0.583149 -0.170173 0.785931
plane 0.764519 0.157547 -0.652023 -0.078958 -0.117356 -0.295994 -0.115916 -0.210371 0.117456 -0.106444 0.525260 -0.026953 0.800291 0.433101 -0.911186 -0.306920 -0.705507 0.966634 -0.393763 0.873200 0.060753 0.405135 0.377120 -0.026859 -0.159785 0.730514 0.984843 1.051059 -1.520919 -0.484479 1.089098
pressures 0.758869 0.123175 -0.793740 -0.541446 0.772049 -0.062748 0.356485 0.074474 -1.080152 -0.305316 -0.844816 0.853853 -0.647412 0.780061 -0.283173 -0.268556 1.204941 0.129441 -0.477592 0.391167 -0.136827 -1.335193 -0.768787 0.959494 0.582730 -0.300879 0.939508 -0.249899 0.962284 -0.924683 0.283294
similar 0.200208 0.948992 -0.095986 -0.672048 -0.317315 -0.385338 -0.040106 -0.291458 -0.881981 -0.039488 -0.619339 0.185468 0.765848 0.036695 0.154445 -0.471354 -0.754281 -0.006276 0.553899 0.311526 0.336743 -0.629522 -0.730782 0.420021 -0.266234 1.024858 -0.561907 -0.022648 0.180540 -0.324619 -0.046640
measured 0.674149 0.141507 -0.541803 0.302099 0.040851 -0.139117 0.321358 0.569496 -1.268511 -0.658244 -0.223360 -0.365386 -0.109236 0.016732 -0.311492 -0.528765 1.244089 0.600702 0.124787 1.007283 -1.064347 -0.392291 -0.302657 0.874721 1.515939 0.562314 0.482331 -0.331495 0.687202 0.057349 -0.146547
heating -0.303132 -0.122944 0.575641 0.719165 0.152309 -0.610456 0.597120 -0.222760 -0.373179 0.486940 -2.031040 -0.117176 -0.540987 -0.539142 -0.731254 -0.164179 0.016460 0.273788 1.396006 0.629096 0.774442 -0.549288 -0.675657 -0.503200 1.688767 -0.086635 0.573898 -0.266255 0.155418 0.188833 0.478533
calculations 0.661399 0.462546 -0.157434 -0.166378 0.158160 -0.080312 0.443399 0.856794 -0.587089 0.428422 -0.977820 -0.590395 0.329161 -0.276157 -0.233579 -0.145700 0.560011 -0.005866 0.041721 0.608045 -0.358790 0.030925 -0.803308 0.399438 -1.044921 1.050666 0.306331 -0.533122 0.051280 -0.026387 -0.584503
influence 0.477061 0.117083 -0.871633 0.783043 0.065220 0.179581 0.036834 0.374595 0.046946 -0.364583 -0.895611 0.085833 -0.336247 -0.375387 -1.110911 0.382686 -0.360968 0.509765 0.439952 0.426659 0.664746 -0.314530 -0.392749 -0.448041 0.957884 0.888605 0.084234 -0.067794 1.221627 -0.279339 -0.259787
airfoil 0.334107 0.727207 -0.831043 -0.103296 -0.225519 1.120035 -0.516983 -0.936900 0.312539 -0.611248 -0.187753 0.076343 0.368083 -0.759799 -0.824843 -0.447560 -0.293513 -0.232336 0.598338 1.148657 0.450684 -0.597652 0.346908 1.348135 1.798316 -0.345654 0.386733 0.591764 -0.932006 -0.642804 -0.269368
ratios 0.755331 0.269519 -1.073178 0.590282 -0.202288 0.215541 0.101470 -0.533113 1.059299 0.423200 0.250194 -0.262954 -0.418892 0.741868 0.391721 0.900403 1.127825 0.692608 0.047951 1.254595 -0.647003 -0.695553 -0.842700 0.002027 0.637864 1.222129 0.018855 -1.229220 0.269309 -0.352221 0.787080
differential -0.538556 0.353440 -0.487232 0.639951 1.325911 1.708537 -0.955879 -0.366894 -0.369349 0.387730 -0.966625 -0.218690 -0.036391 0.264713 0.517559 -1.877170 -0.471087 -0.135663 -0.257837 1.195689 0.521800 0.455140 -0.287337 -0.822177 -1.378587 0.265063 0.068499 -0.660868 0.884432 -1.241782 0.758560
good 1.119846 0.341846 -0.313642 0.379627 -0.833688 -0.363283 0.211961 0.173563 -1.304534 -0.049049 -0.198160 -0.273444 0.380801 -1.507789 -0.329876 -0.602896 0.645327 0.324809 -0.680928 0.515540 -0.798228 0.025634 -0.027643 0.558418 -1.810651 0.747573 0.163744 -0.530836 1.608628 -0.183212 -1.153063
load 0.816761 1.091570 0.158020 1.389030 0.420409 -0.216005 0.048084 -1.574855 0.154941 0.057611 -0.442367 -0.374884 0.450259 0.226648 0.551615 0.007861 -0.310595 0.536949 0.403079 0.758073 -0.569681 0.165641 0.643429 0.665694 1.088864 0.542246 -0.416385 0.725729 0.703231 -0.382847 -0.106524
tube 1.164596 -0.305424 -0.836752 -0.279002 0.853105 -0.680767 0.511532 -0.034889 0.635381 -0.022439 -0.304289 -0.061546 -0.202949 1.102505 -0.359390 0.446793 0.353135 0.068379 0.332868 0.634526 -0.237607 0.614975 -0.750864 1.212936 0.137102 -0.088606 1.897497 -0.101865 0.923632 -0.215406 -0.045610
injection 1.057603 0.491088 -0.647467 -0.460535 -0.830830 -1.310906 0.094609 -0.273494 -0.677671 -0.385325 -0.752879 -1.257837 -0.531761 0.324724 -1.107347 -0.313059 -0.020602 0.661826 1.374572 -0.769080 -0.158332 0.275731 -1.201844 -1.078876 -1.214806 -0.252484 0.410282 0.073812 0.551476 0.386199 0.314701
part -0.509166 0.570107 0.105685 -0.442621 0.513708 -0.149894 -0.355600 -0.130332 0.371824 0.942949 -0.264436 0.114009 0.659975 0.448402 -0.450904 -0.713295 -0.987776 -0.162030 -1.054603 0.408781 0.167541 -0.909998 -0.126311 -0.953666 0.025690 0.378622 0.683265 -1.120344 0.635639 0.869631 -1.113059
investigated 0.572969 0.508755 -0.646653 -0.209657 -0.571658 -0.142745 -0.436496 0.022323 -0.097286 -0.128836 -0.356948 0.127776 0.442389 0.119149 -0.247703 -0.896325 0.328488 -0.181781 0.135124 1.188661 -0.400994 -0.530796 0.073865 0.271760 -0.308012 0.208340 0.812200 -0.902278 0.079525 -0.087185 -0.156396
note 1.346422 0.462569 1.148246 0.519331 0.035741 -1.160081 -0.007922 0.096711 0.231527 -0.040964 -1.290993 -0.528968 1.039822 -0.143218 -0.489617 0.252291 -0.788044 -0.825302 1.262319 0.103301 0.668473 -0.210663 0.565594 0.472846 -1.213787 -0.179108 0.963692 -0.160760 0.694874 1.033971 0.104424
forces -0.123419 -0.357422 1.166298 0.605505 0.746097 0.421197 0.874547 0.842939 0.189677 0.707127 -0.799055 -0.352199 -0.470377 0.040760 -1.250811 -0.021921 -1.142478 0.673018 0.143458 0.713281 0.810633 -0.385427 -0.193595 0.234733 0.962464 1.034258 0.671205 0.950144 0.090570 -0.336927 0.623766
distance 1.886603 -0.167490 -1.564883 0.664338 0.336991 0.831281 0.378459 0.331157 -0.292475 -0.814660 0.293472 0.805511 0.192720 0.788204 0.305401 0.009069 0.552362 0.996200 0.323006 -0.063675 0.831935 0.799408 -0.300622 0.192420 0.054727 0.505086 0.125902 -0.006299 -0.572020 -0.980738 -0.169393
initial 0.934547 0.921096 -0.157656 0.993736 -1.182963 -0.653164 0.243978 -1.828920 0.035761 -0.127278 0.477014 0.004183 0.100684 -0.189851 -0.342567 -0.401649 -0.521046 -0.052049 0.996565 0.376672 1.148638 -0.566972 -0.186591 0.668155 -0.172497 -0.171417 0.395368 -0.749359 0.192456 -0.432927 -0.023504
conical 0.853729 0.232283 -0.248668 -0.510177 0.373844 0.501810 -0.324373 -0.768296 0.258176 0.535616 -0.795229 -0.393581 -0.735478 0.945407 -0.644161 -0.617135 0.243674 -0.661862 -0.615946 0.677397 -0.054568 -0.115131 -0.506563 0.775264 -0.819785 -0.981409 0.776757 1.048450 -0.497340 -0.610153 -0.056349
energy 0.015203 -0.563614 0.231879 0.189024 0.251279 0.477517 -0.377048 0.130261 -0.633769 0.658069 -0.749031 -0.049350 0.047713 1.048217 -0.272261 -1.624186 -0.696898 -0.024043 0.581800 0.334751 0.063714 0.328991 -0.506566 -0.201769 -0.191655 0.229884 0.240168 -0.424785 1.336229 -0.257799 -0.140996
approximation 0.316107 -0.096703 -0.458550 0.018116 0.102230 -0.284727 -0.607661 -0.196983 -0.678124 -0.098898 -0.636063 0.247827 0.816114 -0.449912 -0.605395 -1.910125 0.249497 0.055085 -0.662698 0.081879 -0.247217 -0.246354 -0.543666 0.640376 -1.011324 -0.232667 0.370318 0.196127 0.760063 -0.127671 -0.938996
density 0.381798 0.710730 -0.043949 -0.584080 0.154396 -0.204851 0.001711 0.106052 -0.575877 -0.364155 0.392268 -1.179926 -0.510192 1.466482 0.138149 0.003525 0.221993 1.462828 0.540601 1.142795 0.190719 0.602625 -0.935484 -1.223847 1.081437 0.150453 0.013164 -1.455005 0.796752 -0.376402 -0.929832
linear 0.056018 -0.055532 0.272904 1.129798 -0.096008 0.945221 0.071657 -0.034314 -0.418626 0.104655 -1.882411 -0.148424 0.267393 0.633757 -0.417355 -1.454061 -1.045301 0.286358 0.300389 0.735146 -0.382427 -0.166537 0.636599 0.137392 0.058584 -0.500681 -0.713554 0.575340 0.477433 -1.201670 0.537657
loading -0.142536 0.470674 -0.099070 0.295595 0.554593 -0.254038 0.758783 -1.317692 -0.538335 0.533160 -0.417407 -0.416168 0.146176 0.065819 -0.270936 -0.099708 -0.208735 0.479466 0.402853 1.096853 0.401536 -0.280490 0.051728 -0.058291 0.476478 0.444961 0.755239 0.494722 -0.406730 0.163369 0.561093
application -0.127957 0.796766 0.509203 -0.356818 0.426246 -0.233054 0.331788 -0.047870 -0.334569 0.105472 -0.887823 -0.071412 1.138361 -0.246984 -0.249569 -0.584199 -0.648952 -0.075066 0.144382 0.480096 0.022749 -0.364674 0.075446 0.926116 0.016375 0.921140 0.261077 0.324706 -0.281457 -0.248303 -0.487614
assumed 0.790268 0.347023 -0.836760 0.090114 -0.450331 -0.204224 -0.083369 -0.312240 -0.379680 -0.025194 -0.246333 -0.275618 0.110844 0.962889 -0.666542 -0.796659 -0.927683 1.073999 0.480394 0.643121 -0.172674 0.705639 0.279486 -0.613822 -0.120373 0.020826 -0.014207 0.381350 -0.226662 -0.272466 -0.556698
shell 0.534996 0.483752 -0.427191 0.475635 0.467286 0.356169 0.561657 -1.010693 -0.192734 1.297880 0.201950 -0.619774 0.396102 0.464390 -0.199653 -0.848945 0.205752 -0.183256 -0.436370 1.191101 -0.088753 0.267034 -0.333846 0.003100 -1.066265 -0.650629 -0.268610 0.945186 0.133915 -0.458077 0.722540
gradient 0.615466 1.033585 -1.065994 0.127079 0.520785 0.714024 0.072532 -1.095175 -0.984284 0.351130 -0.859772 -0.555949 -0.746529 0.521449 -0.213882 -1.105531 0.073094 0.366973 0.528714 0.186434 0.070250 -0.409001 -1.323185 -0.225859 0.224658 -0.216155 -0.012476 0.235629 0.265774 -0.024437 -0.227234
parameter -0.113463 0.421070 -0.409407 1.257257 0.228060 -0.460329 -0.264749 0.006921 0.863350 -0.385324 -0.942012 -0.419154 0.891379 -0.222981 -0.315309 -0.904804 0.695135 -0.203623 0.750088 0.618912 0.721305 0.587580 -0.284350 0.091795 0.983650 -0.121989 0.282557 -0.420716 0.687987 0.056343 -0.198548
certain 0.686755 0.224754 -0.150045 0.643038 -0.806085 -0.256298 -0.174935 -0.172992 0.659671 -0.447910 -0.932870 0.144665 0.518191 0.023196 -0.278050 -0.091695 -0.290719 0.002993 0.304779 0.276241 0.317973 -0.350005 -0.521423 0.640642 -0.135682 0.687239 -0.285701 -0.288546 -0.521537 -0.533039 0.029625
functions -0.304003 -0.144244 -0.347836 0.722250 -0.380647 0.738808 -0.179828 0.353946 -0.600284 -0.769221 -0.852068 0.294800 0.168749 -1.147523 0.084495 -0.081188 -0.803088 1.168664 -0.008706 1.183653 0.119360 0.416269 0.565913 0.066308 0.705502 0.742599 -0.514979 -0.581676 -0.177612 -0.673549 0.352175
exact 1.178449 0.951844 0.573143 0.135370 -0.249351 -0.581920 -0.838280 0.725459 -0.504270 -0.812089 -0.997761 -0.445830 0.773674 -0.141073 -0.298676 -1.278143 0.253705 -0.228515 -0.565539 0.231551 0.347247 -0.271883 -0.719983 0.497800 -1.079397 1.270765 -0.960157 0.324492 -0.293446 0.244275 -0.162241
increase 0.581977 -0.235979 -1.235163 0.843974 -0.793072 0.281041 -0.317729 -0.420906 0.481993 -0.253253 -0.040583 -0.253632 -0.128772 -0.856665 -0.459527 -0.227473 0.603611 0.156993 0.582130 0.593804 0.028275 -0.740231 -0.631793 -0.777321 0.176492 0.205322 0.167460 -1.364760 0.358113 -0.354481 0.230918
inviscid 0.494897 0.234102 0.193383 -0.444196 0.530466 -0.316795 -0.632826 0.939931 -0.450530 -1.099036 -0.580199 -0.399880 0.280084 0.802055 -1.589514 -0.936352 -0.276424 -0.767620 -0.057941 -0.093184 0.825236 -0.184371 -0.421136 -0.044698 -0.142411 0.297695 0.821719 0.983448 -0.058064 0.330247 -0.597032
possible -0.187695 0.466329 -0.422016 0.287302 0.314419 -0.644988 -0.317637 -0.298411 -0.258010 -0.216091 -0.567641 0.115348 0.221500 -0.712815 -0.298448 -0.481865 -0.112846 -0.289944 0.032887 0.089603 0.022529 -0.594533 -0.114405 -0.265004 -0.311583 0.975201 0.087036 -0.886535 0.049892 -0.450702 -0.588780
stresses 0.660040 0.204901 0.149722 0.502825 -0.041387 -0.488657 0.858481 -0.529337 -0.318241 1.580294 0.239266 0.336494 0.420682 0.497502 -0.757840 0.694013 0.212598 -0.166351 -0.159054 0.807865 0.075359 0.274914 0.480603 -0.124567 0.912061 0.789262 -0.351234 0.890745 0.861764 -0.577410 0.175042
arbitrary 0.802655 0.161045 -0.431513 -0.656321 -0.691669 0.865530 -0.322443 -0.511692 -0.162591 0.904315 -0.500993 -0.677430 -0.061155 -0.716142 0.027677 -0.562576 0.071460 0.430090 1.209592 0.922899 0.183397 0.218711 -0.869623 0.547607 0.796106 -0.272619 0.261711 0.441138 -0.902469 -0.384792 0.133975
comparison 0.630534 0.694768 -0.072195 -0.138067 0.324505 -0.712274 -0.078779 0.888801 -0.760273 -0.028268 -0.423480 -0.740214 0.579674 -0.015860 -0.297482 -0.241132 1.311190 -0.308612 -0.825546 0.672782 -0.941927 -0.064783 -0.218189 0.558605 -0.332369 0.995370 0.148506 0.295805 0.718710 0.198929 -0.643404
critical 0.360749 1.338359 -0.231004 1.014166 -1.382338 0.238816 0.708724 -0.395456 0.513458 0.399830 0.377776 -0.267717 1.360022 -0.204441 -0.241500 0.567563 -0.040610 -0.519615 0.477958 1.041079 0.338088 -0.225070 -0.147711 0.698002 1.352880 0.541210 -0.672193 -0.706443 0.275533 -0.555412 0.150934
elastic 0.768969 0.363229 -0.691112 0.965807 1.089394 0.330322 0.963701 -0.731149 0.892410 1.035075 -1.153391 0.431446 0.910819 0.526318 -0.327201 -0.081020 0.383680 -1.109405 -0.692685 -0.254750 0.524078 0.394712 -0.088595 0.701400 -0.674315 0.382104 -0.217081 1.202247 -0.230693 -0.628769 1.035090
variation 0.446132 0.483923 -0.558490 0.202377 -0.571249 0.147409 -0.380270 -0.052044 -0.560699 -0.186035 -0.798283 0.043525 -0.557165 0.241043 -0.165736 -0.174577 -0.112677 0.664974 0.836753 0.511681 -0.416105 -0.121990 -0.122196 -0.667175 0.877725 0.011808 -0.283660 -0.741248 0.330840 -1.077094 -0.325210
cones 0.823809 0.070722 -0.136108 -0.009728 -0.677642 -0.131539 -0.591737 0.375545 0.383918 -0.202911 0.253567 -0.888057 -0.507881 -0.550575 -1.018543 0.152177 0.907997 0.190280 -0.659692 1.010356 -0.790994 -0.455812 -0.538062 1.178310 0.044060 -0.160843 1.497453 1.027653 -0.909307 0.179107 0.258355
creep 0.954924 0.086318 1.247191 1.120340 -0.444620 -1.202788 0.769342 -0.097918 0.342061 0.646018 -1.194162 -0.637233 1.043432 0.430681 -0.608715 0.885834 -0.974342 0.318094 0.759849 0.700837 0.095335 0.635901 1.457099 0.324608 -0.590865 0.228652 0.998981 -0.090899 0.869732 0.593085 1.196213
finite -0.787549 0.185890 -0.736002 0.337630 -0.319543 0.607937 -0.158295 -1.273790 0.718033 0.167512 0.525395 -0.829065 0.332466 0.194768 -0.371214 -0.701544 -1.036797 0.685245 0.133145 1.498553 0.063859 -0.370809 -0.026710 0.005016 -0.309925 1.231809 -0.444476 0.680073 0.522620 0.464989 -0.564099
series -0.747624 0.331440 -0.615330 0.649918 0.432299 0.696438 -0.984730 0.898248 -0.125213 -0.293876 -0.964668 -0.090235 0.837749 -0.141009 0.328598 -0.489888 0.043629 -0.093242 -1.227132 1.025831 -0.489334 0.629585 -0.445339 0.328781 0.550692 0.648783 -0.018014 -0.078801 -0.787188 -0.859933 -0.275092
different 0.137959 0.884621 -0.503602 -0.547949 0.138150 -0.689902 -0.445975 0.294059 -0.516969 -0.700212 -0.889659 0.753306 -0.127367 0.129939 0.090474 0.620092 0.325540 0.493917 -0.137926 1.087009 -0.064444 -0.472215 0.467444 -0.034396 0.282108 0.759511 0.110355 -0.593762 -0.654500 -0.531129 0.853658
particular 0.382332 -0.216956 -0.304938 -0.231877 -0.388837 0.609450 -0.087233 -0.090822 -0.416289 -0.042277 -0.333364 -0.199238 0.411052 -0.814309 -0.161551 -0.368825 -0.886787 0.566394 1.061019 1.403542 0.223576 -0.839281 0.449546 -0.352071 -0.896420 0.567076 -0.601340 -0.455881 -0.417990 -0.047626 -0.066263
shapes 1.699565 -0.307545 0.297801 -0.406310 -0.001782 0.412802 -0.026684 0.528543 0.319203 -0.276930 -0.599862 0.172771 0.012774 -0.678083 -0.272884 0.427894 0.464833 0.526297 -0.051692 1.257023 0.739130 -0.551374 0.011032 0.938625 0.377961 0.519477 0.670209 0.053641 -0.587926 -0.378016 0.221328
aspect -1.095170 0.142114 -0.910043 0.758791 0.884898 0.466469 -0.053349 -0.522975 1.958573 -0.373449 -0.021620 -0.963276 -0.056539 1.012101 -0.198494 0.570494 0.409421 1.222050 -0.551247 2.060041 0.117191 -1.403429 -0.703990 -0.362293 0.587976 1.170752 -0.205012 -0.142110 0.487711 -0.197229 -0.105247
derivatives -0.812840 0.072338 0.139421 0.429144 0.231247 1.346725 0.718001 0.495872 -0.502647 0.111047 -0.602281 -0.548232 -0.551502 -0.417796 -0.829309 -1.033814 -0.145556 -0.418324 -0.370387 1.219144 -0.702829 -0.350001 0.727512 1.308276 0.895754 0.232789 0.479099 -0.505983 0.541528 -0.249167 0.704086
however 0.797790 0.137435 -0.351941 0.249771 0.008129 -0.606348 -0.292347 -0.292179 0.376798 -0.286733 -0.538761 0.140036 0.479256 -0.617880 -0.321102 -0.281270 0.306790 0.101180 -0.006362 0.617734 -0.165200 -0.805064 -0.098799 0.074459 -0.146262 0.384793 -0.011525 -0.431711 0.452441 0.084741 -0.246000
rates 0.583556 -0.284204 0.568489 0.686114 -0.620146 -1.044360 -0.174796 0.111011 -0.127654 0.310332 -1.727811 -0.370697 -0.476984 -0.088371 -0.727075 -0.560826 0.732269 0.402357 0.833401 -0.011117 0.231213 -0.478816 -0.974169 -0.746716 0.554538 -0.036663 -0.313711 -0.314708 0.356236 0.135174 0.400856
experiments 0.033425 -0.137099 -0.494187 -1.129649 -0.599495 -0.733653 -0.106173 0.838498 0.222460 0.205857 0.386448 -0.244170 0.824021 0.127307 -0.848112 -0.280564 0.867634 -0.813143 0.130367 0.441411 -0.938403 -0.549367 -0.110374 0.492216 -0.915214 0.707978 1.186019 0.066577 0.593253 0.274909 -0.290799
moment 0.030692 -0.061256 0.241674 1.811491 -0.446767 1.385746 0.719037 0.151339 -0.738146 0.033270 0.127346 -0.570207 -1.026310 -1.838906 -0.655422 -0.516969 0.316847 0.739309 0.447838 1.004590 0.180028 -0.185752 1.070243 0.105814 0.626756 1.167342 1.134278 -0.139567 -0.362390 -0.083821 0.255024
surfaces -0.705266 -0.267707 -1.558807 -0.364337 0.133167 -0.144477 0.430235 -0.279659 0.062954 0.237848 -0.717087 0.181116 0.090011 0.301648 -0.834535 0.107180 -0.297606 0.868551 0.019276 0.737032 -0.088246 -0.950971 -0.867665 0.041862 -0.124166 -0.515023 -0.080891 0.821296 -0.404367 0.018676 1.245493
edges 0.569864 0.640843 -1.411836 1.163363 0.642871 0.612713 -0.032211 -0.014949 0.441003 -1.667714 0.700606 -0.030317 0.923803 0.183166 0.019197 0.891989 -0.659190 0.062167 -0.429372 0.361685 -0.235722 -1.491657 0.526882 0.599627 -0.620864 0.864916 0.320447 0.904639 -0.468677 1.036323 0.721006
higher -0.246042 0.055020 -0.632231 0.922691 -0.304568 -0.667108 0.074728 0.053468 0.178345 -0.412885 -0.795858 0.652084 0.840487 0.126709 -0.100103 -0.978740 0.742585 0.564007 -0.367851 0.177626 0.092011 -0.747602 -0.394783 0.194356 0.790034 -0.065061 0.539246 -1.423398 1.114421 -0.228208 -0.090541
mass -0.019798 -0.828157 -1.064771 0.276383 -0.229949 -0.147470 0.110541 0.373365 -0.475073 -0.135221 -1.049521 0.084188 -0.172457 -0.120408 -1.329637 -0.307032 0.579733 0.134241 0.970590 -0.089896 0.293784 0.055843 -0.708566 -0.451801 0.624036 -0.232907 -0.366237 0.130981 1.256975 0.202049 -0.439691
means -0.510845 0.020713 0.201072 -0.547619 0.201418 0.374471 -0.151400 0.145321 -0.521064 0.343838 0.026594 0.236909 0.418972 0.408270 0.196938 -1.297439 0.488551 -0.325553 0.370182 0.404289 -0.580271 -0.140627 -0.161365 0.752002 0.635156 0.917746 0.308205 -0.624717 0.763248 0.136657 -0.200586
roughness -0.703107 1.233502 -1.154221 -0.795479 -0.962231 0.578516 0.260245 0.463302 0.170890 0.229431 0.266093 0.182041 1.270372 -0.549099 -0.771550 -0.011215 1.062338 -1.072192 1.050494 0.867371 1.115311 -0.397465 -0.018800 0.176978 0.581002 -0.321253 -0.403567 -0.690678 0.053132 -1.132266 1.513639
external 0.614190 0.813562 -0.202536 0.369078 0.595939 0.239719 1.013117 -0.649957 -0.381882 1.162854 -0.387787 -0.275540 -0.288060 1.216878 -0.579346 -0.629129 -0.466811 -0.279684 1.051807 0.358240 0.155287 0.384322 0.001139 -0.211823 1.112765 -0.173124 1.160483 0.719147 0.362048 -0.094442 -0.339644
magnetic 0.541799 1.408149 -1.072640 0.694806 -0.847171 -0.291572 0.247610 -0.606202 -1.642280 -1.054288 -0.281535 -0.109427 -0.099627 0.004010 -1.309787 -0.378533 0.710403 -0.523301 -0.836462 0.158152 0.623913 -0.408521 0.767609 -1.555521 0.445531 -0.131893 -0.138348 0.959342 -0.188715 0.071648 -0.557355
panel -0.555959 -0.110667 -1.745260 1.019461 0.128461 0.803939 -0.124243 0.312072 0.902212 0.725207 -0.053310 -0.956210 -0.139239 -0.671151 -0.881464 0.005854 0.025166 -0.355438 0.256790 0.701294 -0.350986 -0.136807 -0.396033 -0.361917 -0.585376 1.009064 -0.335954 -0.599274 0.548648 1.358295 1.443506
show 1.133532 0.586817 -0.605626 0.342434 0.088670 0.082941 0.411625 0.229122 -0.629637 -0.383129 -0.562595 -0.004703 0.510268 -0.010437 -0.242792 0.286139 0.528514 -0.453167 0.492870 0.511116 0.134030 0.081020 0.391981 -0.294092 -1.424369 0.912775 0.170238 -0.422541 0.605015 -0.144170 -0.665453
transverse 0.564897 1.160802 -1.292935 0.678591 -0.229867 -0.115383 0.883320 -1.127592 -1.232507 0.532362 -0.179935 0.487494 0.329458 0.164427 -1.489753 -0.375133 0.490601 -1.104746 -0.293806 -0.132495 1.096450 -0.005176 0.405488 -0.670072 0.538253 -1.075451 -0.578517 2.022468 -0.017393 -0.203497 0.828888
behind 1.206519 -0.095224 -1.021009 -0.689449 -0.067545 0.428801 0.408408 0.386000 -0.274219 -0.109465 0.666228 0.016894 0.149698 0.316326 -0.680900 0.888455 -0.716831 1.630618 -0.074902 0.279486 0.956393 0.417430 -1.121095 -0.288665 -0.036876 0.838301 1.055106 0.465275 -0.259556 -0.540264 0.189195
mixing -0.024248 0.902119 -0.328676 0.004654 -1.372230 0.607063 -0.189119 0.040601 -0.588877 0.055738 0.035560 0.037840 -0.536483 1.405221 -1.503321 -1.496672 -0.860337 0.086175 -0.110440 -0.891313 -0.431731 -0.387229 -0.250565 -0.253256 -0.342725 1.251764 0.989867 -0.046820 0.177843 0.568311 0.620567
within 1.072608 -0.348393 -0.118552 -0.582871 -1.443437 -0.522270 -0.126069 0.134163 0.087046 0.440406 -0.556758 1.199571 0.503343 0.344923 0.165667 -1.247608 1.139086 0.582520 -0.226436 -0.705934 -0.144966 -0.930056 -0.468709 0.837938 -0.119401 0.201269 0.579169 -0.156102 0.603058 -0.578116 0.259517
corresponding 0.587590 0.591098 -0.238175 0.726045 -0.779421 -0.090884 0.099691 0.154397 -0.510669 -0.401000 -0.245806 0.246314 0.686391 0.162185 -0.270290 -0.911426 -0.232151 0.660072 -0.133219 0.393842 0.386391 -0.395307 -0.542974 0.124866 0.606528 0.726923 0.015883 -0.029038 0.066697 -0.645742 0.066297
total 0.117936 0.438868 -0.302973 0.804018 0.420930 0.963589 -0.144839 0.154496 -0.435561 -0.407119 -0.472131 -0.181287 -1.423747 0.467895 -0.091493 -1.097518 0.076554 1.066747 0.300775 -0.060744 -0.199353 -0.349286 -0.786974 -0.059164 0.553122 0.820191 1.054523 -0.656606 0.228381 -0.197952 0.561394
integral -0.573174 -0.257675 -0.103223 0.131298 -0.137928 1.444935 -0.444993 -0.183936 -0.565787 0.847228 -0.497843 0.124953 0.734446 0.179006 0.473203 -1.660866 -0.510901 0.391592 0.154428 0.426080 0.219685 0.646415 -0.566224 0.387684 -0.501873 1.420648 -0.526296 0.085508 0.497653 -0.200445 0.205728
atmosphere 0.495530 0.483923 1.557350 -0.889480 -0.009594 0.293203 1.503131 0.850188 -1.045381 0.366156 -0.068426 -1.475509 -0.778645 0.843469 -0.107555 0.364602 0.096140 0.645001 0.250035 0.777476 0.631889 -0.689575 -0.763478 0.134071 0.303566 -0.469637 -0.455212 -0.583526 -0.257324 -0.105296 -0.185630
determine -1.044353 1.060296 -0.657291 -0.511207 0.407703 0.154747 -0.062876 -0.411812 -0.403089 0.658854 -1.259534 0.569837 -0.339140 -0.194731 -0.652390 -0.235079 0.789621 -0.694121 0.220694 0.644800 -0.058830 0.076111 0.130199 0.062082 0.630811 0.688323 0.771867 -0.572092 0.220056 -1.194208 -1.293742
new -0.214661 0.057108 0.517605 -0.416313 0.230309 -0.740835 0.020352 0.047820 0.291991 0.648788 -1.427087 0.154131 0.349565 0.547758 -0.162999 -0.377416 0.186007 -0.292252 -0.128979 0.411183 -0.202836 0.548515 -0.015667 0.471496 -0.220847 1.184269 0.669622 -0.284543 -0.338301 0.228461 -0.018723
cross 0.704496 -0.253979 -0.447965 -1.023825 -0.434065 1.643225 -0.443799 -0.829207 0.417687 -0.309305 -0.263292 -0.369310 -0.700703 -0.457865 0.427680 -0.236979 -0.008004 0.385765 1.111702 1.106102 -0.212925 0.528063 0.513244 1.333724 1.172962 -0.239859 -0.046080 0.875499 -1.046468 0.568394 -0.797956
described -0.304135 0.285701 -0.023997 -0.964479 -0.524422 -0.514566 -0.181511 -0.484276 -0.343160 0.117649 -0.479908 0.044531 0.574329 -0.251588 -0.125769 -0.428701 0.226304 0.020870 -0.191470 0.742981 -0.620883 -0.352226 0.236598 0.565936 -0.124320 0.876490 0.402390 -0.493410 -0.458117 0.454863 -0.906172
models -0.544055 -0.046426 -0.592521 -0.111498 0.385785 -0.099742 -0.228961 0.069182 0.851841 0.550341 -0.225371 0.220641 0.392234 0.185361 0.360265 0.303316 0.401378 -0.853707 0.311676 1.212600 -0.886679 -1.534368 -0.101737 0.313886 -0.510590 0.605739 -0.001574 -0.164213 -0.569842 -0.236391 -0.199750
degree 0.018533 -0.299882 -0.374453 0.410526 -0.366835 -0.426887 -0.545431 -0.358762 0.517620 -1.042552 -0.693322 -0.907382 -0.832572 0.106823 -0.522843 0.834516 1.369334 0.142417 -0.763958 0.121353 -1.056568 0.004784 -1.212018 1.213390 -0.790170 -0.187041 0.787437 -0.133043 -0.280390 -1.489419 -0.148176
approximately 0.656131 0.390776 -0.774584 0.504605 -1.201904 0.432119 0.003055 0.334422 0.018936 -0.292538 -0.249363 0.441867 0.034712 0.839593 -0.371643 -0.588054 1.013184 0.581958 0.034770 0.071626 -0.115965 0.145946 -0.181534 -0.067935 0.420117 0.381370 -0.097168 -0.410378 -0.243361 -0.659851 -0.078853
cooling -0.307913 -0.358783 -1.956390 -0.435415 -0.535524 -0.902254 0.481329 -0.420259 -0.511908 0.328778 -0.762221 0.577369 0.801483 -0.461261 -0.827156 0.180485 1.219650 -0.874475 1.465004 -0.319021 0.317787 -0.432853 -0.299795 -0.671560 -0.111555 -0.058941 -0.493636 -0.298502 0.741279 0.565260 0.373658
dynamic -0.005683 0.455515 -0.536640 0.006903 0.336754 0.111693 1.130060 0.514900 -0.824475 0.131583 -0.949441 0.004880 -1.580378 1.330951 -0.729280 -0.465784 0.419901 -0.627155 0.722428 0.286291 -0.735011 -0.164741 0.134313 0.585199 -0.027931 0.009339 1.471509 -1.235732 0.134203 -0.096060 1.077896
panels -0.266353 -0.846996 -0.855716 0.003992 0.292587 -0.120460 0.410263 0.070922 1.297276 1.122044 0.410905 -0.791427 0.661941 0.201510 -0.424507 0.871474 0.529981 0.236258 0.724795 1.082544 -1.113866 -0.402708 -0.362029 -0.299541 -0.442268 0.707444 -0.150452 0.409320 -0.179840 1.521870 0.580329
including -0.414320 0.182336 -0.525151 -0.338745 -0.337806 0.095946 0.017563 -0.091524 -0.011584 0.447539 -1.182105 -0.597874 -0.638134 0.792809 -0.931272 -0.261596 -0.307508 -0.162254 0.333917 1.046934 -0.518636 -0.687774 -0.106116 -0.278884 0.053582 -0.244150 0.038117 -0.124600 0.773449 -0.121532 -0.418292
expansion 0.497208 -0.022335 -0.270139 -0.414596 1.130166 -0.300450 -0.395885 -0.707131 0.717755 0.788695 -1.031962 0.216404 0.906104 0.423302 -0.342965 -0.706641 -0.319969 0.880168 -0.368611 0.086014 0.704541 0.956503 -1.143716 -0.165855 0.402954 0.210536 1.143970 -0.151687 -0.079013 -0.587227 -0.820579
interference -0.528916 -0.368068 -0.789258 -0.781711 0.932616 0.437788 0.558490 -0.414333 0.802954 0.697131 -0.221412 1.004013 -0.162450 0.877412 -1.120060 -0.370062 0.208088 0.406872 0.087046 1.039402 0.579215 -1.680958 0.579511 -0.476777 -0.116779 0.694453 0.465366 -0.002756 0.811204 -0.289851 -0.928720
non 0.142271 -0.041540 0.867539 0.175274 0.487304 0.432229 0.407060 -0.132373 -0.532276 -0.487851 -1.515298 -0.913967 -0.036710 1.052113 -1.004766 -1.018327 -1.591775 0.642780 0.017890 0.784900 -0.297259 -0.464409 0.415396 0.202753 -0.282281 -0.806950 -0.097463 1.228729 -0.189664 -0.345699 0.163458
loads 0.297014 0.561379 0.128949 0.699066 0.602824 -0.379676 0.943409 -0.337984 -0.777475 0.724325 -0.760356 -0.259783 -0.249384 -0.562932 -0.591871 0.375320 -0.208428 0.149217 0.064169 1.037218 -0.025549 -0.627737 0.261357 0.015345 0.952448 0.412444 0.541266 0.894275 0.962025 0.430909 0.269822
power 0.232442 0.552012 -0.459355 0.873495 0.389125 0.762038 -0.015365 0.912235 -0.712514 -0.324228 -0.578636 0.540711 0.443886 0.297244 -0.114386 -0.214266 -0.451236 0.759044 -1.073287 0.022947 0.643214 -0.130941 -0.740989 -0.206633 0.674495 -0.396095 0.338179 -0.456353 -0.879985 -0.919970 -0.034348
e 0.649245 0.181246 0.511360 0.285403 -0.029637 -0.252954 -0.198601 -0.385540 0.290737 0.442270 0.113101 0.303462 0.316697 1.480384 -0.038577 -1.375950 -0.710309 -0.156230 0.410966 -0.254855 -0.244359 -0.598563 -0.290810 -0.026497 0.887449 0.251154 -0.435644 -1.236467 -0.125447 -0.328332 -1.417665
sonic -0.505137 0.889285 -0.761209 -1.237821 0.199593 0.986361 -0.020644 -0.171896 -0.452623 -1.226402 0.240976 0.343848 -0.382583 1.193538 -0.811185 -0.047911 -0.221897 0.497907 -0.318285 -0.617523 0.524140 -1.055978 -0.412223 -0.063319 0.991595 0.392220 0.912525 -0.301877 -0.235318 0.091942 -0.639468
temperatures 0.060200 -0.521413 0.032438 -0.240452 -0.034491 -0.995118 0.586415 -0.016862 -0.534490 -0.069569 -1.231652 0.702547 -0.034021 1.159470 -0.105026 -0.050927 0.932696 1.568309 0.284050 -0.093112 0.116168 -0.355639 -0.625018 0.539013 0.942130 0.158423 -0.201048 -0.938819 0.998444 -0.983594 0.507311
work 0.040506 0.015247 0.429282 -0.399099 -1.034995 -1.084077 -0.430384 0.117338 0.213711 0.760529 -0.704408 0.577188 0.687866 -0.186924 -0.579274 0.156896 0.420033 -0.857401 -0.487830 -0.227930 -0.182756 -0.554980 0.137232 -0.233851 -0.083597 0.794289 -0.701092 0.213836 0.671060 1.177959 -1.025192
predicted 0.881789 -0.176979 -0.296838 0.105264 0.031282 -0.527222 -0.659528 0.133711 -0.679434 -0.023932 -0.722856 0.717025 0.096724 -0.814192 -0.187033 -1.153467 0.279535 0.695797 -0.416577 0.280407 -0.136264 0.251075 -0.016271 0.661209 0.049098 0.309553 0.550970 0.197458 1.581821 -0.276731 -0.184184
condition 0.090628 0.486176 -0.503385 -0.066124 0.120128 -0.237798 -0.299032 -0.867761 -0.057732 -0.286931 0.092381 0.334848 0.161583 0.537435 0.334541 -0.419074 -0.305720 0.395661 0.494962 -0.471691 0.365833 0.071413 -0.282519 -0.277336 -0.585029 1.076378 0.856725 -0.680881 -0.207294 -0.690109 0.633521
known 0.298199 0.509152 0.098842 -0.209780 0.520693 -0.776925 -0.420047 0.321092 -0.553115 -0.324553 -0.985373 0.263338 1.404983 -0.352772 -0.397416 -1.114967 0.109364 0.303785 -0.322705 0.817038 0.356592 0.348089 0.363866 -0.170808 0.561520 0.876709 -0.553267 0.336802 0.098378 0.502696 -0.214475
control -0.065441 -0.534326 -0.697907 -0.182213 0.217367 0.406154 0.807198 -0.195995 0.385243 1.014150 -0.833859 -0.543268 -0.639678 0.000136 -0.465406 -0.365921 0.014806 -0.297584 0.704100 -0.081355 -0.446352 -0.462308 -0.987462 0.414779 -0.941741 0.601736 0.917665 -0.060449 -0.403675 0.203795 1.027439
downstream 1.155332 0.203706 -1.455090 0.275377 0.383262 -0.196070 -0.313780 0.273507 -0.072159 -1.032436 0.017415 0.635665 -0.752200 0.142492 -0.448928 -0.151372 0.817449 0.320572 -0.118476 -0.333505 0.703636 -0.802694 -0.557951 -0.874177 -0.399269 0.518659 -0.123075 0.168696 -0.476337 0.277269 -0.316596
percent 0.794876 -0.625433 -0.537523 1.007388 -1.153622 0.431960 0.499539 -0.412455 0.779307 0.591369 -0.085780 1.102840 -0.198631 0.103640 0.403387 -1.390215 1.205709 1.395471 0.183293 -0.129065 0.225987 -0.932474 -0.262184 0.074630 0.544661 0.413170 -0.346261 -0.142405 0.613450 -0.065563 -0.504076
induced 0.834193 0.594483 -1.416827 -0.235667 0.791678 0.174901 0.362194 -0.395122 -1.408549 0.343122 0.567863 0.089096 -0.541795 -0.566834 -0.330925 0.063053 0.503597 -0.495369 0.304763 -0.453080 0.692398 -0.588310 -0.906214 0.060193 0.263942 0.333106 0.867746 1.004218 0.835425 -0.127535 -0.002093
parameters -0.409215 0.473386 -0.206396 -0.328010 -0.195534 0.176979 -0.790374 0.273132 -0.250596 -0.181348 -0.894073 -0.291750 -0.192472 -0.194122 0.000330 -0.339050 -0.027736 -0.158897 0.639367 1.581160 -0.137020 -0.423939 -0.010471 -0.387399 0.512661 0.076613 -0.413001 -0.855641 -0.111907 -0.298438 0.106306
per -0.371668 -0.142359 -0.689030 0.506585 -1.046557 1.150070 -0.194829 1.593136 0.622115 0.516000 0.184828 0.635565 0.576180 1.036725 0.004853 -1.517290 1.232193 0.354501 -0.737655 -0.622263 -0.727293 -0.225682 0.317718 0.549484 1.224380 -0.288941 0.373575 -0.424573 0.656613 -1.166877 -0.578113
reduced -0.193124 0.530402 -0.093609 0.929554 0.743349 0.238335 -0.549645 0.130427 0.168428 -0.114219 0.076961 -0.537009 0.860815 -0.460289 0.264678 -1.275760 0.482765 -0.009219 0.282419 0.996728 0.455566 -0.250503 -0.668200 -0.490783 0.593978 0.032124 0.540548 -0.731764 -0.129586 0.128738 0.379211
upon 0.095493 0.704498 0.040434 0.350586 -0.947413 0.775117 0.298326 0.258596 0.534140 1.137640 -0.571875 0.329044 -0.470951 0.790802 0.034912 -0.601820 0.660144 -0.239863 0.115236 0.134355 1.024645 -0.241048 -0.825926 0.435461 0.518112 0.519033 0.125330 -1.394085 0.011435 -1.210302 0.072905
frequency -0.196395 0.782272 -0.086891 1.078998 0.269147 -0.328886 0.801650 0.068879 0.175397 -0.454829 0.527266 -0.616286 0.799700 0.270524 0.977146 -0.582703 0.647239 0.689673 0.544575 1.046110 0.028620 -0.202990 -0.642174 -0.546124 1.440892 -0.552701 0.613426 -1.113533 -0.128124 0.104033 0.074741
ground 0.083639 0.375084 -0.756881 -0.665366 0.969131 -0.607648 0.134722 0.686840 -0.584290 -0.797577 0.015373 0.830663 -0.308694 0.071412 -0.748661 0.543505 1.243736 -0.638317 0.134789 -0.013839 1.078657 -0.979354 -0.157201 -0.290359 0.239524 0.250776 0.743855 -0.141965 0.192149 -0.227037 1.139207
noise 0.360119 1.006183 -0.948021 -0.361848 1.286199 0.179384 0.766799 -0.049449 -0.479320 0.384010 0.516644 -0.181735 -0.578607 -0.400675 -0.105028 0.726154 -0.399701 -0.120894 -0.233906 -0.255846 0.784923 -0.393860 -0.789688 -0.095824 0.572737 0.367782 2.156180 -0.664618 0.419114 -0.249820 0.507497
separated -0.098608 -0.340832 -0.676710 -0.966539 -0.838696 0.086614 -0.832691 0.307292 -0.709990 0.088842 -0.533749 0.466153 -0.237342 0.666886 -1.684511 -0.357927 0.555097 -0.536308 -0.560824 -0.708303 0.251457 0.217090 -0.995303 0.136075 0.344658 0.894835 0.731495 0.080351 -0.052988 0.854592 0.635266
similarity 0.274902 0.053613 0.510966 1.118725 0.649884 -0.760395 -0.474517 0.519488 -0.041245 -0.205561 -0.778437 -1.213756 0.829202 0.230424 -0.272581 -1.014034 0.297061 -0.524519 0.924188 -0.107477 0.361215 0.623478 -1.553318 0.547363 1.240560 -0.452680 -0.315021 0.167115 -0.129173 0.404954 -1.362342
theories 0.795560 0.397345 1.063695 0.108194 -0.757322 -0.564280 -0.475338 0.446558 -0.452561 0.023014 -0.315220 -0.019721 0.735543 0.262982 -1.332605 0.022796 0.669925 -1.021101 -1.214500 0.484755 0.077314 0.448735 0.157525 1.248350 -0.209970 0.950100 0.119841 0.643741 0.302101 -0.717640 -0.195289
vortex 0.968053 0.164384 -0.020242 -0.341034 0.204742 0.691547 0.316460 -0.088976 -0.345156 0.099426 0.790069 0.472555 0.060985 0.236435 -0.269346 0.772432 -1.210283 0.181225 -0.484152 -0.078578 0.472246 0.073957 0.608516 0.638481 0.421523 1.131807 1.035516 1.063504 1.268099 -0.724194 -0.241932
wake 1.059586 0.065842 -0.732073 -0.749082 -0.098701 0.642758 -0.306284 0.645603 -0.822120 0.236900 0.697145 -0.035246 -0.444650 -0.002751 -0.867060 0.470172 -0.614783 0.434640 -0.282321 -0.010915 0.548349 -0.005332 -0.967596 -0.120618 -0.072473 0.736430 0.770812 0.983523 0.435442 -0.145090 0.092737
indicate 0.529622 0.596472 -0.167000 0.292959 -0.294346 -0.123989 0.543736 0.113025 0.018172 0.149950 -0.408268 0.096008 0.143489 -0.261016 -0.043502 0.210796 1.056461 -0.507884 0.254032 0.797558 -0.034813 -0.370590 0.394620 -0.113378 -0.924873 1.243837 0.042222 -1.046231 0.396584 -0.084894 -0.361879
included 0.389916 0.030185 -0.436642 -0.283814 0.281382 -0.272181 0.214160 -0.304903 -0.706149 -0.121922 -1.062073 0.275899 -0.375338 -0.507290 -0.429436 0.090050 0.634996 -0.342109 0.329928 0.784204 -0.240012 -0.699434 0.346725 0.298276 -0.476868 0.709948 0.346861 -0.438185 -0.220075 0.158228 -0.580407
required -0.304444 0.262681 -0.445748 0.106877 -0.155667 -0.241661 -0.057766 -0.405437 0.181566 0.504067 -0.007196 0.193886 0.722800 -0.124959 0.173532 -0.405643 0.188409 -0.286590 0.207267 0.606064 -0.215189 -0.290356 -0.031757 0.250320 0.409271 0.448593 -0.240645 -0.314892 0.402329 0.141610 -0.359533
increasing 0.684956 0.496926 -1.138522 1.078608 -0.328150 0.216097 -0.222910 -0.631419 0.239292 -0.292610 -0.445546 -0.414431 -0.582450 -0.135799 -0.066555 0.096191 0.909913 -0.188544 1.081186 0.369230 -0.383279 0.048334 0.392728 -1.281995 0.479400 -0.417313 0.109310 -1.384414 0.243372 -0.585429 -0.120782
less 0.667089 0.058014 -0.702575 0.625102 -0.760544 -0.253871 -0.401958 0.116989 0.507734 0.419094 0.035324 0.398567 0.393518 -0.496209 0.499225 -0.880124 0.388913 0.801553 -0.609245 0.544440 -0.425761 -0.377639 -0.412854 0.053462 -0.101688 -0.215267 -0.174537 -0.203883 0.694648 -0.531805 0.099713
profiles 0.120697 0.707441 -0.348614 -0.464000 -0.862425 -0.702029 0.167815 -0.656164 -1.189603 -0.761725 -0.260784 0.045866 0.295121 0.377590 0.053667 0.254150 -0.570111 0.688644 0.803137 -0.358592 -0.118783 0.311987 -0.858579 0.579340 0.139354 0.984430 -0.627154 -0.468665 0.217108 -0.544934 -0.020207
structure 0.509444 1.010751 -0.992514 -0.327034 1.041100 -0.079893 0.729341 -0.563008 -0.018166 0.247052 0.686072 0.149960 0.651869 0.141313 0.342529 0.757604 -0.839724 0.149793 -0.577721 0.085373 0.541015 -0.490194 -0.154959 -0.546249 -0.285160 0.849086 0.613691 0.338759 -0.637542 -0.026799 0.420338
system -0.210914 -0.231582 -1.129571 -0.099899 0.745673 0.566704 0.230816 0.241062 -0.508762 -0.115831 -0.148300 0.233768 0.478906 0.068255 0.218533 -0.809313 -0.218036 0.256649 -0.219236 0.289759 0.030602 0.249459 -0.022242 -0.171930 -1.219263 0.180069 0.589694 -0.275814 -0.438341 -0.748076 0.714032
compression 0.400047 1.304638 0.158955 0.149673 -0.190306 0.184171 1.394177 -0.525390 -0.962892 1.188714 0.535216 -0.625652 -0.323681 0.976490 -0.154397 -0.332921 0.380288 -0.575490 0.530341 1.163064 -0.949096 0.385345 1.314602 0.194444 0.053980 0.144911 0.844249 0.798599 -0.202474 0.345593 0.188998
displacement 0.233459 0.247245 -0.759308 0.383206 -0.234483 0.493751 -0.151608 -1.084752 0.172151 0.352182 0.667199 -0.256188 0.679184 0.614171 -0.294085 -0.101634 -0.045991 -0.318864 0.812359 0.593677 1.344622 -0.019170 -0.623896 -0.646858 -0.545734 1.071852 -0.419148 0.141127 1.098009 -0.513612 0.250067
profile 0.926914 0.657682 -0.393567 -0.396006 -0.949987 0.480800 -0.790945 -0.755459 -0.293900 -0.534851 0.001003 -0.370836 -0.319559 -0.126171 -0.103050 -0.158628 -0.317968 0.566387 0.748572 0.377499 0.595312 0.114905 -1.110146 0.692621 0.553207 -0.101482 -0.141917 0.307291 -0.171311 -1.048838 -0.716839
rectangular -0.568039 0.514022 -0.834453 0.995714 0.424333 0.391222 0.650380 0.086508 1.312348 -0.029769 0.742973 -1.311979 0.616934 0.965357 -0.198904 0.525215 0.056455 -0.114114 0.187372 1.425644 -0.692649 -0.955287 0.263471 -0.311080 -0.135611 0.898202 -0.499122 0.968324 -0.074623 0.839264 0.659329
result 0.523195 -0.366435 -0.334581 0.160919 -0.009588 -0.279720 -0.321974 -0.184708 0.463282 0.025874 -0.141346 0.299280 0.993149 -0.456846 -0.050028 -0.698867 0.113731 0.417456 -0.117587 0.633550 0.032840 -0.397357 0.149612 0.051818 -0.564628 0.825215 0.275426 -0.486357 0.010504 -0.049633 0.134527
accuracy 0.344530 0.214785 0.494067 0.289044 -0.766202 -0.115330 -0.257359 -0.074021 -0.512925 -0.665979 -0.497304 -0.430337 0.686395 -0.629063 0.588420 -0.507583 0.465959 0.160274 -0.355598 0.215340 -0.397798 -0.189571 -0.882196 0.954088 -1.113557 0.419652 -0.021283 -0.897361 -0.034720 -0.599789 -0.611003
entry 0.392476 0.069727 1.413865 0.042661 0.048194 -0.197898 0.518083 0.006374 -0.485122 -0.490164 -0.118644 -1.292423 -0.759200 -0.243308 -0.053070 0.200336 -0.308586 0.934626 0.001947 0.274983 0.821218 -0.878686 -1.297599 0.270505 0.505164 -0.449123 -0.168270 -0.398528 -0.616812 -0.271498 -0.479364
experiment 0.736478 0.197378 -0.296085 -0.152787 -0.069299 -0.367630 -0.426881 0.435045 -0.657333 0.313452 -0.349294 -0.120797 0.549043 -0.545509 -0.616767 -0.810734 0.879179 -0.745544 -0.807328 0.473756 -0.825079 -0.151277 -0.025695 0.759508 -1.188103 0.545186 0.442679 0.225319 1.149960 0.019158 -0.741371
infinite 0.106260 -0.169041 -1.281247 0.593639 -0.412994 0.826004 -0.726481 0.412786 0.639324 0.553661 -0.023766 -0.801768 0.095721 0.094713 -0.735434 -0.909717 -0.072651 -0.435337 0.422988 0.268391 -0.685628 -0.148982 -0.200786 -0.604205 -0.137458 0.348444 -0.125704 1.609193 0.199747 0.147342 0.362562
presence 0.039627 1.465608 -1.224026 0.222011 0.039706 -0.085781 0.079861 -0.707676 -1.106207 -0.195607 0.619876 -0.507621 0.414119 -0.272196 -0.752744 -0.537908 0.637603 -0.479221 -0.408782 -0.452388 0.741568 -0.647416 -0.584516 -1.474256 0.630871 -0.410823 0.304551 0.384613 0.030614 0.021194 -0.180028
symmetric 0.266257 1.143825 0.693278 -1.136623 -0.531709 0.212085 -0.778134 0.166209 -0.508323 -0.311230 -0.574357 0.518572 -0.878463 0.560519 -1.108901 -0.036987 -0.345847 -0.541597 -0.248732 0.290092 0.849665 -0.323715 0.412141 0.021742 -0.205536 -0.098852 0.512808 0.956625 -0.689033 -0.709221 1.332317
viscosity 0.978062 0.606200 -0.464733 0.608230 -0.540087 -0.126008 -0.247327 -0.262301 -0.694098 0.336767 -0.702335 0.253548 -0.231822 0.988416 -0.297369 -0.173920 -1.083268 0.463186 0.779941 -0.199092 -0.256311 0.110589 -0.300641 -0.868254 0.740505 -0.562822 -0.767742 -0.382051 0.970500 -1.518704 -0.247953
curves 1.037381 0.510777 0.537190 0.226307 -0.099872 0.225283 -0.236534 -0.031365 -0.121719 0.648815 -0.710714 0.149567 0.108378 -0.667128 0.747638 0.641627 0.041120 0.040441 0.176632 1.243472 -0.006932 0.760747 0.653988 0.668945 -0.081897 0.850273 0.354851 -0.853300 -0.313811 -0.434051 0.239643
development -0.066395 0.165731 -0.177747 -0.874305 -0.487040 -0.274265 -0.027175 0.163017 -0.126530 0.402085 -0.002511 0.017661 1.017304 0.100717 -0.522005 -0.014427 -0.621908 -0.520391 -0.193942 0.303063 0.197230 -0.486270 -0.719945 0.101121 -0.336221 0.228325 0.186316 -0.077156 -0.280733 -0.401601 -0.594971
diameter 1.064760 0.437843 -1.307050 0.379338 -0.594471 1.122474 -0.159149 0.097246 1.365647 -0.042466 0.969325 0.237835 -0.592956 1.324130 0.172996 -0.607032 1.443144 0.415434 -0.214729 0.506966 0.375521 -1.154811 -0.460982 0.020770 -0.109889 0.147077 0.173056 -0.570836 -0.332802 -0.735264 -0.558917
available 1.003469 0.682443 1.041302 -0.298113 -0.323672 -1.253264 -0.015264 0.829946 -0.724859 -0.114906 -0.798666 -0.401608 0.798706 -0.701053 -0.738406 0.532261 1.071775 -0.888247 -0.128179 0.529823 -0.232177 0.322336 0.290800 0.625858 0.417587 0.491933 -0.205025 -0.445878 0.398508 0.155626 -0.176399
scale -0.152211 -0.140235 0.039958 -0.285540 -0.832936 -1.033927 0.088413 -0.255172 1.289870 1.279458 0.248428 -0.041246 -0.620684 1.883226 -0.209852 0.493910 0.630058 -0.347735 1.551221 0.847255 -0.070450 -0.449009 -0.075392 -0.641303 -0.033054 0.885059 -0.200836 0.263816 0.591474 -0.827981 0.433633
modified 0.351933 -0.062031 0.043034 -0.198785 0.391285 0.307189 -0.728104 0.012966 -0.272551 -0.108796 -0.280675 0.326464 0.612498 -0.122968 0.075512 -0.918471 0.369144 -0.073020 -0.224124 0.203637 0.177203 -0.130893 -0.636299 1.509033 0.636097 0.252014 0.442850 0.609269 1.115263 -0.248814 -0.992360
unsteady -0.898496 0.568375 0.032784 -0.347278 0.205720 0.276323 -0.167722 0.134213 -0.002283 -0.086746 -0.080307 -0.368322 -0.239278 -0.630092 -1.252180 -0.180531 -1.151260 0.365511 -0.471630 0.670629 0.558924 -0.440043 -0.167059 -0.069672 0.440626 1.296277 0.877875 -0.040076 0.635727 -0.259845 -0.447151
indicated 0.551772 0.003528 0.032342 0.245072 0.079184 -0.523921 0.015354 -0.111146 -0.157704 0.037356 -0.843041 -0.127349 -0.223871 -0.060197 -0.432431 -0.407606 0.869540 -0.245596 0.077188 0.155736 -0.516112 -0.717893 -0.311205 0.013426 -0.404887 0.459041 0.311522 -0.497434 0.315143 0.115556 -0.524544
